{"scaler_mean": [0.2550969957729444, 0.28656116087350286, 0.6734417344171082, 0.4563146485244236, 0.5958333333333263, 0.5125668387140948, 0.4305555555555556, 0.1875, 0.5486111111111112, 0.7449030042270585, 0.15446734824245906, 0.5874937252304953], "scaler_scale": [0.16347308803322871, 0.17566176011130832, 0.26119445891725723, 0.15232512839998313, 0.3464018085446007, 0.17963277620555235, 0.4951539852770984, 0.3903123748998999, 0.18228339928340143, 0.1634730880332271, 0.6900288677489832, 0.3935112740631423], "layers": [{"W": [[-0.047112727749624196, 0.20245025881295237, 0.09680564421514452, 0.08063478432598675, -0.15358960278885847, -0.07825227551651424, -0.0983212823094738, 0.14351624520218234, 0.04613381650703571, 0.08644976547798634, -0.19807267865509676, 0.14650218089661263, 0.09786387697125458, -0.10517003978524456, -0.10625255853585876, -0.11577195313983235, -0.09131158309028145, 0.03205569019163419, -0.05907716192734792, -0.0972982801027, 0.023832528294336082, -0.11968917303399144, -0.046583869719878934, -0.0754322569196592, -0.05492975397384062, 0.14355959466050525, -0.18807383868294103, 0.011149316497028241, 0.01902135175254785, -0.18690621133948124, 0.12978816417422162, -0.19560082731839248, -0.16680194980205792, 0.16138553551425094, 0.22176290753932149, 0.1047981444352611, -0.090432324600985, -0.15841374087125248, 0.06281092930451486, 0.02471346683633092, -0.17581293027029044, 0.03578273752870501, -0.16214526624206485, 0.26147666434042405, -0.050706681189446406, 0.07138993408789726, -0.07383753231104848, 0.01125043380597706, 0.040829167892811026, -0.17012455726832862, 0.12767892514292284, 0.09512757725924663, 0.1337072853825472, 0.1694498089620294, 0.06024122278761881, 0.16390473939029726, -0.23760760648090717, -0.12046551541358902, -0.18228339899814097, -0.08957692136925942, 0.013617095336754058, -0.043945065738469576, 0.13214844051240193, -0.10925450609104156, -0.11061811680999235, -0.03003786785217747, -0.10046039016297273, 0.1280366924346908, -0.20008203513038167, 0.1261111221759708, 0.12803227860707098, -0.09811233091963537, -0.29220232898301446, 0.15412427279263638, 0.04883597436262805, 0.07421604801667905, 0.1440152764975532, -0.1409533203272764, -0.07469285991376874, -0.13297149839716532, 0.14281388413879142, 0.07016325428186511, -0.06397420991854087, -0.12098637589251796, -0.08093556810345434, -0.07189744011823206, 0.08684746116248315, 0.10918906891159114, 0.13394779477583243, 0.021338960339708488, -0.19405563174508014, 0.1324520064438324, 0.17664121751914763, -0.0016708740674543864, 0.12064650419586495, -0.04032567045645342, 0.04901270922399349, -0.007816556641444818, -0.20372363370434143, -0.16739355552510263, -0.13184907730877723, 0.09593009450630788, -0.16233429637796665, -0.017676419177826086, 0.19346692371499769, -0.0825343500630237, -0.045906130518853706, 0.12106337542874433, -0.0730016931048065, -0.12535331278905537, -0.17139744709673857, -0.08338163786408824, 0.16590202628484968, 0.09278578079047746, 0.06270805451441469, 0.14451732325332708, 0.18703267033203336, -0.14229460906633856, 0.09714355570592612, -0.0032200011001619743, 0.10438722570144508, 0.15480546521844113, -0.05488810292860938, -0.1621782738842358, -0.11326402037900979, -0.022003769794764032, 0.1095424903869138, 0.09086939849396242], [-0.22884240036772993, 0.003876780857638903, 0.0049843758798239265, -0.18443839533049675, -0.29870289336631684, 0.051884952723563825, 0.26324762247413375, -0.019737595034497114, 0.016413525078663452, 0.17826317409054035, 0.010268545475103488, 0.5759525994287781, 0.19650441950972553, -0.22035204107445983, 0.03616151652877986, -0.14348724813439406, -0.11551781961250188, -0.3294769680015964, 0.1171944756674554, 0.33351476160105376, -0.3173576556247293, -0.5358719272382563, 0.27537228990150936, -0.15016232065312915, -0.4391576950355733, -0.022385440347112425, 0.5776956031980232, -0.30315521683262897, 0.1766961119405289, 0.4396033182310953, -0.5024041425273644, 0.4334017482286445, -0.13757402300424018, 0.2222382836085107, 0.13937484575939116, -0.0063071486792496256, -0.35690296078122613, 0.43696352280270506, -0.16015491400591925, -0.6304515245357648, -0.1865724518029587, -0.05961309077639013, 0.019381361829906175, -0.5842743109770507, 0.17834011245468537, -0.15663503383943667, 0.13832633471184083, -0.3693064639475923, 0.08155801320588037, -0.22638474465028463, 0.3239812904167875, -0.40517472959540723, 0.008448504121071688, -0.20134588303251155, 0.16433675467862646, 0.13409912511182595, -0.09398881408695609, 0.04268512801511762, 0.25843319427834105, -0.4053541220470212, -0.049503895500399034, -0.40460677813573526, -0.11397659014288858, 0.29394077120703255, 0.0743146776736631, 0.25966962061195825, -0.45043415074535176, -0.15366678346090573, 0.3433773104356909, 0.24428439885797715, 0.13686906847324393, 0.30688788146391127, 0.05250090425361953, -0.6110081588863518, -0.18788117720325093, 0.10689392402167225, 0.005920485878211162, -0.2973226427706823, -0.03595772226860184, 0.0015618910584967623, -0.14407668056138034, -0.3630520216794887, 0.04311011694784379, 0.0865243189195219, 0.037346063625305355, -0.06641610377033605, 0.0040342600636566715, -0.49966395966884436, -0.09531134703791476, 0.2705147090766065, 0.3251132798863594, 0.2022669749670741, -0.018472039595052194, 0.18987010102971075, -0.3973726928140489, -0.020022795757854997, -0.38545793680627466, -0.40871596448762343, 0.4456434454460238, -0.00591418166712134, 0.25701311136979227, -0.4936636578439236, 0.2026206565579058, -0.09061852323707306, -0.04641605956618466, 0.23218567057466138, -0.16169601225132674, 0.04818729818753932, -0.12808873075128493, -0.4038509917659896, 0.22115528950840044, -0.44406225260541776, 0.189530892562488, 0.17807205325967163, 0.35266591979379414, -0.09704597598590185, -0.7074594919714715, 0.35556749003951016, -0.04091267140378067, 0.47794457396339407, 0.356976981652164, 0.11552040721361176, 0.0017701617237288912, -0.0533776582911484, 0.39721250861455887, -0.06881475797372957, -0.25858728391566216, 0.04294208252254861], [0.21280172701305106, 0.09138424301468867, 0.07923239275459118, -0.12939941226274632, 0.08255398484335993, 0.29539402795704894, -0.06666544451622891, -0.010653518648616097, 0.19394924620308993, 0.13720729587411934, 0.12190400876358475, 0.07211589743281964, -0.010603774706552297, -0.027704406354404094, 0.1754467692832389, 0.11968348006593585, 0.1563743677269388, 0.26060302346760333, -0.012002947223450109, 0.02040679445755324, 0.07754282553714392, 0.010041523539282896, 0.12724490941040564, 0.012656581577986294, 0.17570653953372758, -0.09036319169342333, -0.07797149364297119, -0.10806648309921565, 0.010543041057514588, -0.2151497261757987, -0.021082584971453117, 0.02573022001905322, -0.06324047464976314, 0.004000819382650077, -0.2103816562430413, -0.24353975657901392, 0.19548428796442033, -0.02209938722465515, -0.25429555671161386, 0.06391765144920712, -0.029059679506364983, -0.11932404349552116, 0.15719254739993135, -0.1240195535467697, -0.2349254234260019, 0.03201539469230736, -0.022338290821144937, 0.09858887851538908, 0.0983337195858011, -0.092029393159483, -0.028057387585928444, -0.1011191357368102, -0.0057792623660151265, -0.07915311423103281, -0.06918289954307622, -0.24046764461117426, -0.307988709432384, 0.22974712674205494, 0.1639071137523296, 0.041781150659111074, 0.003359068589118698, -0.08809852725590124, -0.10486506249783246, -0.09127358372250083, 0.04916473834031267, 0.07101310836688472, 0.07383435128417455, -0.04279525761855435, 0.16754932103551795, 0.12069955726236471, 0.06006436978062576, 0.08614620447452981, -0.025239299018792124, -0.05952491019810769, -0.20589601237077812, 0.09939548425337691, -0.24483299308104106, -0.12465126872287474, -0.1557935935403927, -0.22385068329513996, 0.22053047358662972, 0.12495525280815024, 0.02365150950019, -0.17862640389171752, -0.040746641928369576, 0.0781459872201574, -0.21588571044123014, -0.019731989746431693, -0.11904457415713694, 0.09146325608718457, 0.08816871104185267, -0.19186067896803163, -0.05065563561630493, 0.08277334475556129, -0.016261072108933506, 0.17842125109996715, 0.03351302790586526, -0.1031826121062234, -0.22652581307246084, 0.09927833697691943, -0.1596233130896737, 0.08828918751748559, 0.14523701465226732, 0.037274563062196266, -0.024785058342856835, 0.05326635651547399, 0.002707784709940714, 0.013645820964197369, 0.22489332190165856, -0.09175638098693965, 0.1716736403527187, 0.25204237689088255, -0.07643383218058973, -0.2863272245135988, -0.22693072246040277, -0.17734283979102783, -0.14273856682634342, 0.15343202024337071, -0.2303357303821234, -0.10249826581786031, 0.14191767666391106, -0.19661664702402207, 0.1865991986273745, -0.06263799279002669, -0.16867153282593272, 0.10968635804532553, 0.1154263443083654, 0.17018382514102487], [0.07865009497242387, 0.11604551734226237, -0.21970705124047665, -0.21011945499284862, 0.08362332414114192, 0.2676763053286834, 0.17772470671762594, -0.11973316564174814, -0.15006080332514252, 0.2384380247008631, -0.23097635940442068, 0.2124765156911388, 0.34965057104586106, -0.07904627271624079, 0.10858626555402719, 0.04653204965785477, -0.36796166505606365, 0.18476921704526927, 0.16845807454937728, 0.21791275167843463, -0.16594469814899346, 0.17284572855888514, -0.02867204350879825, -0.6206785571755024, 0.1485536285195906, -0.271396679184424, 0.04658194992131666, 0.2663073464668885, 0.3095504309369297, 0.0384781105302295, 0.013076952239380418, -0.0028763993609501955, -0.023831007119130537, 0.05990144642550396, -0.025617437868411953, 0.19652684066338627, -0.03434611007302797, 0.10381170438581631, -0.4413260657773571, 0.03223437202689173, -0.24963104535036815, 0.00889171448378334, -0.18566334930765685, 0.17249160996671592, 0.05358813417869583, -0.1377490195761349, -0.18806677595435678, 0.03339417975718935, 0.014027466703805426, -0.5798748934562071, -0.11734882072302892, 0.08241177339629871, -0.32631213676782667, 0.3110457908200345, 0.06561922954441177, -0.26423091245758423, -0.4803898250686489, 0.232163520861473, -0.03842937241942405, -0.10532105065550497, 0.10722394871388759, 0.13413475390614743, 0.2869003303841538, 0.14860892818987614, -0.08717824996196213, -0.1152347361214141, 0.0675432790616734, 0.04954031219771233, -0.059162556228604085, 0.29877284300866946, -0.13357908003518268, -0.07297824462766159, -0.17023864063023558, 0.01118577953298683, -0.5095548192261073, -0.2152013049796654, -0.1548792114201576, 0.05790039435146788, 0.0994585312937157, 0.020314029254183845, 0.14928677523161918, -0.007155105538469736, -0.17009330196131853, 0.11347521170864769, -0.35683421226133305, 0.1895958401605794, -0.44260814458936826, 0.15165504855211998, -0.3441946807016048, 0.12861540054313825, 0.06750830584675128, 0.18926474217420472, -0.40313216690101095, 0.08471748412634791, 0.21271308394687766, 0.09032876435361491, 0.03673510732717022, 0.07940608534687978, -0.07987423091592204, -0.14464938227110957, 0.044235589498250225, 0.10133205911792735, -0.17436290463564214, -0.043781377693847, 0.2169084579088099, 0.20508712656063877, -0.0657393706108553, 0.14789762889209992, 0.0023424377161802624, -0.21225825124291456, 0.07308546150679855, -0.00433725624000096, -0.07630983867614904, -0.3472586190338042, 0.18543765887914862, 0.3219887280976827, 0.04927833015613731, 0.008095050473315555, -0.12617943410019905, 0.2466236843264749, 0.12107566675973631, -0.35334524137544987, 0.10790849287409453, 0.18939400469695705, 0.19329395486685488, 0.03805686494829635, 0.11625666228662052, -0.030103096819306372], [0.18731894068051197, 0.16788783651053585, -0.1995885224098824, -0.15569710119044938, -0.0616779665530032, 0.17761487618581354, 0.27441390118275477, -0.16491668217120184, 0.06241546167066427, -0.06280357602127044, 0.19859219382548626, 0.07445453293719767, 0.08972669631370428, -0.015221975332724322, 0.007690431823369959, -0.09435579609328988, -0.16801690298197164, 0.16530975091357414, 0.08268500693844022, 0.19351203923706056, 0.21408786141491837, 0.05274089523769522, 0.16794365057839172, 0.20476565132622265, 0.11263758111424546, -0.07224986350746851, -0.10043982171721715, -0.15912975777984156, 0.1600935577378194, 0.06017891451828744, -0.019144770638502565, 0.01467407402988614, 0.04932053266919741, -0.09008690730768051, -0.12187460186462218, 0.042570962065256415, 0.008532379782949916, 0.11162086130168171, 0.03838835635296773, 0.19905546710296104, 0.034765100222830574, 0.0671170746445506, 0.18568105383682448, 0.057413417114550926, -0.08858493331595511, -0.18864897440733702, 0.14276729668634586, 0.050942108178550216, 0.08405904675759863, -0.11226002499163973, -0.2014864236367626, -0.22065482333746414, -0.08438936606620766, 0.03154543542081183, -0.03623280994303244, -0.013613834159178075, 0.1342108950153181, -0.07680826213089041, 0.016233184176598796, 0.10738600172578144, 0.004872926880680916, 0.10820733322717395, 0.14143147573896128, 0.13662487893671185, -0.18109954501737308, 0.14833306739373908, 0.051495495428377315, -0.1090677433073472, -0.03886782894130832, 0.10961190646084809, 0.025043276171944868, -0.05199492454733665, -0.05020325203450764, -0.077940170854562, -0.16707587764389267, -0.1696159735175155, -0.12133015565438776, -0.11621339151930961, -0.19119221918699295, 0.09765203027903524, -0.1561703497950598, -0.03898681408682869, 0.17768087280765413, 0.040859125042773316, 0.05636167995556199, -0.1434525879569593, -0.0897469114014606, -0.14249818009111748, -0.14863716239737224, -0.06477578441341136, -0.17820774824051944, -0.1267877828021277, -0.08758286384031615, -0.04907185089669941, -0.11353024805284925, -0.09418404612029048, 0.045308590131780006, 0.11251462795445263, -0.1945700957853607, 0.12061214151954344, 0.12506035517512287, -0.1468857180390581, 0.08248377185556424, 0.16751271439013668, -0.15151943392543551, -0.08198272388688402, 0.11458018164350471, 0.11302746212914776, -0.10771496379355987, -0.04685377204984694, -0.14802779200348454, 0.04569363607223996, 0.03341946324632597, -0.06360471501117226, -0.02019529896483041, 0.08790978992754316, -0.12597804080788053, -0.11641927909306528, 0.03835247184933861, 0.13352821410673735, -0.022943608160686628, 0.012042730216303418, -0.14537227991418586, -0.013116414687738371, 0.008276543854893268, -0.11180396016635354, -0.1309864447655785, -0.11375965578279275], [-0.22020535765635302, -0.020892721313520768, -0.12543140061627825, -0.06691672928799326, -0.07906765624271761, 0.058797022936167044, 0.09890990923428802, -0.002385583618750363, 0.006541927581081475, 0.04825289509226621, -0.061659044197077205, 0.01600690074300088, -0.0653446819425532, 0.04187939196710053, 0.013165703699507064, -0.011886038520655031, -0.02825045055954302, 0.003076658705776468, 0.05726189204078724, 0.09157741800075601, -0.018693670366880365, 0.0936115115679459, 0.04661697352257241, -0.05679495214253923, -0.04161858973927237, -0.1921299047463711, 0.0007938449098501594, 0.006471509581509539, -0.008934503196978106, -0.0329469027623826, 0.016429013529367202, 0.1433683616130438, -0.1547791503085797, 0.02993174948376994, -0.09325420146913209, 0.10810721477299685, -0.1078133390831583, 0.0017613641922179838, -0.0010316048822162928, 0.05686822071660461, -0.009512480406154536, -0.18661215954930893, -0.19316177531926187, 0.051751432836462524, 0.12985995503505926, 0.026874368011079657, -0.02451000668512993, -0.024336571736439622, 0.13380183546307942, -0.05872650779341651, -0.07003296999861364, -0.0015202038543858983, -0.03255638006867839, 0.012284487341995057, -0.08732692284057714, 0.031382056013623955, -0.03534835157345701, 0.07861819134541022, -0.029003793455613203, -0.019740028475923675, 0.028527917741092906, -0.1713968889572103, 0.03126736780567525, -0.047321226866042794, -0.14054958415564797, 0.24540246834014415, 0.00876704855930833, 0.1314016242519452, -0.028444654506864522, 0.022295235145396372, 0.021421485909430694, 0.027804179453512344, 0.01705459466107537, 0.0025581830360398863, -0.05363238113368792, 0.09004172241417967, 0.045453623212449126, 0.13782072589169653, -0.05683333553024237, 0.01453746295255622, 0.08955541530006463, -0.03805310998359535, -0.17051894545844584, 0.07905989498345285, -0.05297299983713096, 0.046040030509189214, -0.05582940909103515, 0.07437375986111075, -0.03249502481070173, -0.10827181314360866, -0.11191585485216518, 0.022315174648810675, -0.055491054924703055, 0.04135077339252772, -0.02360787926384289, 0.08273689098331719, -0.012091205726618922, 0.08598400689876289, -0.005458939781539014, -0.10417209650283678, -8.87321534336032e-05, -0.03251815271079208, 0.005911028621779006, 0.030303804629560185, -0.030563332207652893, 0.11076644308385328, -0.1051665863005289, 0.07374641314723505, 0.1673081429726922, 0.00011215451535004416, -0.14054901526761485, 0.06791564572913748, -0.022071816526393895, -0.026807890739413514, 0.06688537622138845, 0.06582373931755162, 0.002070554579455262, 0.003656950044939249, 0.07285313304815651, 0.04342898709312264, -0.0478680699383394, -0.03148122655913547, 0.005050503616143138, 0.06109119564775116, -0.011961662012905184, -0.026180613663424935, 0.1398182520447509, 0.07231307142532048], [-0.1273540341851955, 0.2054583861909799, -0.2753053031623211, 0.0871409385842856, -0.16940520654993657, -0.1762541665675073, 0.08544709140588437, -0.1699230081492338, -0.11014104833953675, -0.1001313995683428, 0.0893501933771019, 0.02436460312418673, 0.05408992924777014, -0.020487619529371108, -0.15642081711636846, -0.10936185691539516, -0.15848583952071527, 0.12202254342833332, -0.0323653245651214, -0.017798852799930334, 0.011468193265743418, 0.22981788694940228, -0.16141414764146264, 0.09780298790651423, 0.007612601967853419, 0.061885097966021756, -0.1692120800681357, 0.15498544083982538, 0.20938401578192384, 0.05983127958280727, -0.00212217610515747, 0.22522292892050808, 0.03554610189132192, -0.1254984238865841, 0.025315077249955704, 0.06478820341413193, -0.06258892839245164, 0.08111481370271649, 0.20216184155822026, 0.13602811374115606, 0.018785454783997024, -0.20913061021136153, 0.10735330775209172, 0.07050946704821974, -0.15458216707060066, 0.2568227665947618, 0.20060585950631835, 0.059564627494512135, -0.03935081036281931, 0.032688253784158364, -0.14616476528818345, -0.07678330592769654, 0.21858781724104626, -0.21179489429862658, -0.09888947186563689, 0.022311959319465436, -0.0010236867251140367, 0.1762104927376922, -0.08084063622684982, -0.04283936596137195, 0.057968141033493084, 0.011548257524879759, -0.1807856301400661, 0.03494389915893198, -0.1902753095613182, -0.05840971274427875, -0.04887610524791386, -0.03718214042282707, 0.25573299435583724, -0.0525240015969892, 0.08479092495395149, 0.005622661211573106, -0.2653492925732062, 0.0627942363647582, -0.05946510156141951, 0.17706775241260686, -0.14678277913695806, 0.0003615629065124151, -0.20370586018926282, 0.20229297439068342, -0.02885176047416586, 0.029472191960292556, -0.2979416280086067, 0.06787735238729332, -0.09730732288017943, 0.10281643518169502, -0.039125980888821986, -0.09032477051986798, -0.12245314527884063, -0.04660736396044356, 0.050059676221219186, -0.26774767759200574, 0.20968667446280562, -0.028103778651026916, 0.025233983589009062, -0.07288723107306748, -0.053569345986778184, -0.006820359426467576, -0.15429120693222273, -0.20539113004859946, 0.13461531527077894, 0.133623879544214, -0.01700086937645886, -0.11054804958840339, 0.06595610869159824, -0.09520782443344293, -0.21711888862002826, -0.19529427273337022, 0.11779898042113456, 0.07408034553558211, -0.15672054227259133, -0.17277886688570296, -0.16056363688001374, 0.11891664046545594, -0.2688467314126117, -0.1741818295604952, 0.10850391373852489, -0.11980699524809309, 0.12775168571005507, -0.04445355148395628, -0.19131239370599956, -0.03044404422478893, 0.12177988927316422, 0.12816105019703292, 0.10002253085729576, -0.08310539307414005, 0.069289657225956, -0.11637166354139233], [-0.08642820947901489, 0.15939093810473676, -0.21031139946857758, -0.1549215614868791, -0.12025261919560713, -0.16189076293361182, -0.07619082106175284, 0.06276411907385425, -0.0762452599149829, 0.25589146108394345, 0.09633317389746664, 0.041875246654445565, -0.07258951573962015, -0.04401528417784313, 0.027727808574834888, -0.018371401442220946, 0.021447711703662303, -0.02232794321052419, 0.08772806411750064, -0.04799232437552874, -0.1584239735724809, 0.24660458279527306, 0.06408384500869894, -0.19531740240823128, 0.14646684773383287, -0.016092283551714912, 0.18235389918860734, 0.1488288231821902, 0.007880806596245297, -0.251860875276275, -0.007222246573588512, -0.04720813355648635, 0.10490905801316469, -0.050272880998504146, -0.11736743968659559, 0.20181262239436346, 0.13360331745845572, 0.005752443907964963, -0.23995719192058287, -0.053115412903326956, -0.1836488019954512, 0.21559198553920889, -0.19134904756602242, 0.06667675377667003, -0.08583201207235222, -0.024312596261951893, 0.0022733789090182525, 0.09863618042434191, -0.03248397496166111, -0.23380833676877044, -0.10837788385165244, 0.21487874779273, 0.12867972916216702, 0.08174017866328255, 0.08940944387791545, 0.01735900968899126, -0.1708259785025681, 0.17352863598448598, -0.06300827238746545, -0.006641838317423057, 0.03881531401570446, -0.2167475322456726, -0.12946518231708906, 0.06528249447623408, -0.21103400899090516, -0.005252396562888183, -0.0782040325631743, -0.047995764531142224, -0.1559629690871598, -0.10137436247754533, 0.037004088720386304, -0.05691742167323784, 0.07725457711429635, 0.013363451322216526, 0.05141917456889508, 0.19469272395888756, 0.13238028573405008, -0.11256422162566286, -0.15385046599261493, -0.05898794732190917, 0.027503912901821147, -0.19776105066638053, 0.019347082745152233, 0.11709457647455705, -0.03765752235290475, 0.1286894830442856, -0.21971923441012525, -0.13599049082845024, 0.12294063521468578, 0.008044937958858847, 0.052656383718101496, 0.042399170130776015, -0.12937016643029747, 0.1051775331292421, 0.16605189959044872, 0.06374678651807214, -0.015786986696701276, 0.03541071131029457, -0.034468405536180066, -0.1874221309199172, 0.1621685154509754, -0.06308002727034805, 0.15938140966923897, -0.05028691810723026, -0.11004033727793357, 0.09759736807940032, 0.14225985459147442, 0.14950531589601693, 0.14380958439408376, 0.08327172033099725, 0.09036938989745187, 0.159540573645396, -0.16431713390754946, -0.0003189038847681535, -0.04194624855404222, 0.20259801487655485, 0.21811717738539632, -0.24759420747505018, 0.11006824612882252, 0.14773176597827462, -0.1072952679427173, 0.0048239362353052284, 0.1316080854899933, -0.2083555893201249, 0.10137146739630479, -0.03188409704910672, 0.1877942590533288, 0.16340382767979078], [0.22431551925656787, -0.052468503876509955, 0.21505981927722495, 0.19244283468987428, -0.037021532061405085, 0.20855609631938216, -0.1742716094166852, 0.02080581801896639, -0.06140529676972688, -0.1104500554817056, -0.11811054154630725, 0.07362688902342872, -0.03253125538179253, 0.15217502551957252, -0.13807319282386252, -0.09141113142945777, 0.0626597689599534, 0.14942422111587111, -0.08562557964473078, 0.07096155998704946, 0.1851579931750413, -0.05174372333327457, -0.05455693827414883, -0.1811434001910793, 0.17182943129081293, -0.17623927870025352, 0.12279123702398051, 0.044797060473690344, 0.14184906721130885, 0.14188118644392547, 0.2092008777232302, -0.033137768484002246, 0.12554684226659477, -0.10332869214119583, -0.01577067967376674, -0.025138256572267075, 0.22900909145406484, 0.2216453634590211, 0.15976469889851808, 0.003479076704512697, -0.08310040937011218, 0.10312695555856222, 0.016713115797957277, -0.13163466042766067, -0.10459266723519958, -0.11242706259154037, -0.040679732735461244, -0.08822930660229886, -0.2290625393074341, -0.26844367480160514, 0.16680363959024488, -0.07055976842731734, -0.08781482835831106, 0.06385197840211826, -0.16856250364191536, 0.18972998708811362, 0.15582868331691915, -0.1635620409129399, -0.0019934394399344613, 0.12911925834245577, 0.1808815514752741, -0.02313841969546482, 0.08859095741244935, -0.12436518686369248, 0.24449795621676337, -0.11241564152382777, 0.19016300353274732, 0.06256909781006675, 0.020809588276799226, 0.03765593610290749, -0.0851425813537569, -0.09773236117674716, -0.1007210381940188, -0.10657737275418636, 0.09007746549863817, -0.01768566963451326, -0.22360262148901697, 0.170177549555764, 0.1670795247432919, 0.15277381914897406, 0.23165788554402914, -0.10861801952219723, 0.002907788145407688, 0.06217084413263927, 0.05019536409712998, -0.04202716393830775, 0.14027069080983132, -0.15548890091086057, -0.18923788740551212, 0.053624582682385465, 0.06820064766084903, 0.030020960417255278, -0.21228209152485647, 0.18354041155489817, -0.17475713336573845, -0.1090102920242473, 0.11843048624506379, 0.21437034694068063, 0.10171620312233697, 0.1766048842866988, 0.10253230195690521, -0.006256022484754044, -0.14163652396307383, 0.016542332814401647, -0.07057296976177854, -0.11675440054506694, 0.10804981933662126, -0.002965724931751177, -0.22654575939189275, -0.09824137637708426, 0.05733167622641129, -0.13364728526121078, 0.21909963207408195, -0.05016249297289283, -0.0729396330723208, 0.04176388889747894, 0.11575205652514402, 0.02188521850034747, 0.05303171741302814, -0.062424919226763756, -0.0989497463919053, 0.16264917304243617, 0.1732845306466692, 0.08019071331091304, 0.14366611361628048, 0.17521236256441622, 0.09636530225666126, 0.15574657193253744], [0.07688087272946295, 0.058476357161011475, 0.047995130348086286, 0.0647055568700193, -0.12976225407610356, 0.09350106958003694, 0.06937001981364184, -0.18630637657598229, 0.1301533331783624, -0.1538771310701469, -0.06797019911049396, 0.14868621721708197, -0.10067274958573835, 0.1176907980930384, 0.11201897304723973, -0.011919488423545496, -0.19372985166176243, -0.10993247707185785, 0.07926503995528147, 0.2100187662513544, 0.0769631699936967, -0.12888976472698288, 0.016052960832933345, 0.036680304942461626, 0.15248750722351467, -0.18804738459848405, 0.1718136656718758, 0.011817367366387393, 0.2105929057679406, -0.06607374965458425, -0.030462124453752657, 0.2380447367009855, -0.17718607292108654, 0.2047104997541696, 0.048274296323913134, -0.15591096450707942, -0.07257439405266129, 0.07811750607243821, -0.16555431068761, -0.01547421221754925, -0.043870771925242205, 0.0122225352975724, -0.21775780433523947, 0.06164419934915209, 0.14672922228849955, 0.18976281068313208, 0.09921316962137407, -0.1559115634183992, 0.08517395309221357, -0.1568906362058727, -0.13109301749098368, -0.054263090405831334, 0.04345742368464199, 0.10565222195768087, 0.055857462148306905, -0.011858642426326088, -0.026302316871621833, 0.20028218823158553, -0.03632809441493604, -0.0027890644531153317, -0.1985793738019111, 0.071324376140786, 0.08343376664095721, -0.06541338470557317, -0.15169108899120376, 0.12220440432528268, 0.015902309953059916, -0.09682844721574543, 0.2105985563984476, -0.06905214230268694, -0.04391783852075776, 0.15699171879480883, 0.05463931706992871, 0.033749614631475244, -0.005616230426791952, -0.07288390184748791, 0.16741778315001304, -0.07261890743056232, 0.1790132394413884, -0.13726430751613375, -0.11131067536940972, -0.21314573407772353, 0.05677631916759918, -0.11384736447440644, 0.1528963342414793, -0.011428845898448866, 0.20172914348005674, -0.1824013714680465, 0.17814054124088288, 0.08157681862870814, 0.1487562733849388, 0.09806202879104658, 0.03860411364154592, 0.07916048018495297, -0.16111908464172411, -0.1548913902331047, 0.13435651279493385, 0.026103610206964754, 0.1300622102477383, -0.002106145471167963, -0.21981951723441437, -0.1945088114158698, 0.16230180553225862, -0.00759690374845789, -0.14877914692677957, -0.024648171098973833, -0.17088512745836884, 0.018503884873257194, -0.1342318716727994, 0.07348753635693467, 0.00601206577951057, -0.07530882829637504, -0.1901451389347933, -0.1421753150203239, -0.05201736338494897, 0.0006217762965721687, -0.019932801503250497, -0.07362933520948504, 0.1452189833841917, 0.16851228940756535, 0.13858411372743748, -0.18134414354700668, -0.028430661923278706, -0.16237843279905073, -0.10598525777016782, 0.1929618462751663, -0.12587650739487913, 0.05755037851009825], [-0.0036839713835567947, 0.09399323022641744, 0.019937481886442645, -0.15900316249533253, -0.047151734065455225, 0.1321986480100364, -0.06618297586114708, -0.13767353558189963, -0.18222606849874476, -0.08238661453665683, -0.09423092168204297, -0.1874704519452788, 0.10416973998790519, 0.13629565709883407, 0.17327698188482088, -0.016422533067907943, -0.1847444129540774, -0.09323988564223161, 0.07429199673033521, 0.11021321681665769, -0.21416501599630713, 0.18096833543467725, -0.1556975474891882, 0.013390030194248437, 0.07370516491254729, 0.15422929985646036, 0.07843878555789442, 0.14467473980143855, 0.0029532781279726058, 0.11991862631137304, -0.1399434121196508, 0.12806611152666392, -0.0023755748836880634, 0.1954626644363668, 0.010852575068584764, 0.04002215349015815, 0.13146677082811448, 0.14016089026353798, -0.21389081762142403, -0.19079241014236617, -0.1274033423889369, -0.12677247009910964, 0.12029210956679394, -0.0678246122172315, 0.27730075830614853, -0.0915954399318927, -0.15047067503071662, 0.14836910689756957, 0.021898022591886706, -0.03832605960197201, -0.02895137084855968, 0.033460011356683125, -0.2340766882016107, 0.25936656975766537, 0.1971404294888879, 0.02159918540439715, -0.15251016843915263, 0.10987322186865832, -0.14891978987727744, -0.2062894988923702, -0.041982907965822706, -0.005732005169096565, 0.19821547214576393, 0.09342031352257207, 0.17019841236250974, -0.1493423417057206, -0.023259036302010688, -0.08842203455565324, 0.1744776211063733, -0.19191610480702126, 0.10741316914463069, 0.06986756088494295, -0.1227613991905108, 0.1548105175939924, -0.017202595768594498, 0.11311891860027215, 0.22411563385340263, 0.028319040784381716, -0.03417600130289893, 0.05297316282919634, 0.2234929605431215, -0.0788665578153312, 0.03480381009857537, 0.09350467287626213, 0.11974839076384251, -0.11927148685984142, 0.08439289593832215, 0.19986572205816927, -0.16638175221133059, -0.06602999683864054, 0.18324867678480136, -0.13406108838989939, 0.16202893935140344, 0.054769355034645834, -0.08561389465189345, 0.13754589351852986, 0.027155460022203926, 0.026460565317298925, -0.05701367130537961, 0.07044105124063238, -0.08985003433791336, -0.041941984028981076, 0.2334781337966502, -0.1516649297811878, 0.03876706614462879, -0.008640958819012803, 0.157763952220727, -0.138804948833706, 0.218655659033131, -0.039326119869968874, -0.13768331161651104, -0.15423258294734393, -0.14477945738379164, -0.08232818704245806, -0.0090982923651286, 0.22963235194034953, 0.014570662641160132, -0.08212396981672546, -0.021058912491238136, 0.15676432301523463, -0.15687860651039784, -0.08260917961304365, -0.15085589295199495, 0.1036272595663605, 0.08030023335452743, 0.010054311307250648, 0.13583073988427127, 0.15731840503282046], [0.05290818152377036, 0.20657195714042487, -0.1136252921721477, -0.20226917855566603, -0.0485094152282189, -0.21672923130713778, -0.02852784529609612, 0.2017941084682418, -0.13680041526474576, -0.07213252408999976, -0.06608065372857334, 0.10847125722499629, 0.03814961972060949, -0.01388922980369019, -0.09818387066269492, -0.05160830342853153, -0.0010026671964835274, 0.19151464297735588, -0.10749709533228165, 0.1717603858123822, 0.06883436889369549, 0.13719848445213675, 0.04956409962976278, 0.001226743078656805, 0.05184513935842521, -0.026746731840477867, -0.07933319892245974, -0.2218067100838484, 0.006693457240899829, 0.1034974633833437, -0.19968361928201675, 0.12887669401021945, 0.1307153592489026, -0.14144540915035286, 0.06008817697730395, 0.03441518512919603, 0.24833391955877293, -0.10233727405783791, 0.10811705487185089, 0.15220967843949712, 0.09372965293834468, 0.10947718004908688, 0.02218502264411584, 0.022328026003128845, 0.17692860635131347, 0.05560797956756781, -0.14383402026857942, 0.2635920101159314, 0.042189641698534265, 0.057039254731282935, -0.012157340309489749, 0.0045317293172668065, -0.011575436348545156, 0.08161879958885844, -0.10539502380217572, 0.15280267865002234, 0.14415486653051343, -0.2243461664765837, 0.2417018159365816, 0.04940684394459124, 0.18233400695728544, 0.13295082696235996, 0.09688496707651241, 0.0816877936972145, 0.186000454368371, -0.05483692850381843, 0.011959667191161857, 0.1340460021077732, 0.1067825725523548, 0.07559856428564596, 0.19902893724287093, -0.02928526867873405, 0.15077802564577275, -0.1115244203777534, 0.0393699708154183, -0.21392201126958799, -0.016373665147440392, 0.019726241420981398, -0.05111590393919005, 0.06410454398614927, 0.04984008520792498, 0.002444756905190952, -0.09069735229862833, -0.09003801932503815, -0.024501403789862843, -0.09384810110975966, 0.02187056895831496, 0.07104846120297624, 0.09766336098239928, -0.00488319292602697, -0.0517164419918034, 0.1686753798563093, 0.010942285991378762, 0.03245299351524359, -0.14478095177885925, 0.009288935269626679, -0.02636322528789864, 0.02825945220695118, 0.188270349445858, 0.020952053491751266, 0.057464336334898794, 0.12899713409304941, 0.13977603853883802, 0.04636997541832449, 0.14776827313410754, -0.12877693508370153, -0.11277166511165077, -0.22513009227416916, 0.08775580762082744, 0.1148569258904164, -0.03146762626577643, 0.17744609185536694, -0.0782134226619992, 0.09442693981844875, 0.018791050585368625, -0.10072959525733469, 0.0050054097639608604, -0.037788810953102325, -0.034605595838149344, -0.06268701137253992, 0.13607106753693987, 0.005450049582041789, -0.060717408314671796, 0.04029606563632457, 0.1360635682603372, -0.07364993562668427, -0.01545467934471539, -0.09136390067234111]], "b": [-0.1309704155879731, 0.08245683342745556, -0.12375375215896889, -0.03143840352939924, 0.07051868283089072, -0.19654183149644486, -0.059903765605499606, -0.04033956488213036, 0.19675669823264, -0.17255054307585896, 0.10785874879038904, -0.09124354891619305, -0.24118107258472463, -0.004228464654992732, 0.1750300606035068, -0.06562245980350732, 0.14180843732638937, 0.14393685505697418, -0.22674595563216543, -0.1423186746263916, 0.11949377637386083, -0.07359613799601833, 0.1886689582499852, 0.2159319059614698, -0.05488265730547972, -0.16577501743440032, 0.08969669232280066, -0.16954682365453627, 0.06980203057404671, -0.02324118504395896, -0.021557486080829087, -0.12923130569237548, 0.010945688051644026, 0.0020558494631762307, 0.024265397752719, -0.13826087308564272, 0.14765374927854574, 0.15768496158508855, -0.10429732899347845, -0.22016819641698457, -0.22277441068223114, 0.08038931589871197, 0.02883186114025613, -0.06643152111808684, -0.10234780344433628, -0.03451743128217976, 0.03917044583676933, 0.08376182509746703, 0.10047461417123726, -0.12257873129211166, 0.024104253799402207, -0.018180381212889646, 0.00938947248844476, 0.03737677001472773, 0.07814005941345409, 0.2573405990925269, -0.13860074177365614, -0.2258254094323917, 0.09673225207080031, -0.00010845060191311583, -0.1245134603216729, -0.1481670350154509, -0.1812605431076954, 0.1414403400096757, -0.08827565065409657, -0.05759387425145873, -0.14005008902755237, -0.06564492618993632, -0.1618406704438301, -0.004947477239594206, -0.2149834007837976, 0.059567210812439035, -0.07709753601005333, -0.012089653661365557, 0.16982182491074962, 0.047007392725035624, 0.05225792215496202, -0.07923618212860066, -0.1753322339449074, 0.0206489760205077, 0.20181588345156015, 0.08213505719091896, -0.02958907953039741, 0.05970645079874058, -0.06283264184688066, -0.26035534780240704, 0.11020007436771756, 0.20415835623685427, -0.1128318835799643, 0.015861874177715344, -0.12021780412973385, 0.006888940095908744, -0.12228201687935869, -0.06690454303728242, 0.1342828970419971, -0.058727092268721866, -0.010205557707546735, 0.12541737347692664, 0.2408538103428027, -0.0902660288127058, -0.08592863918190342, -0.2309452495343726, 0.16946724423069404, 0.17191642291781697, -0.0019735087121478287, 0.09944786030116541, 0.05897281519423074, -0.004649286723875189, -0.15578698844721575, 0.12342176757614899, -0.16599820335908327, 0.11240688422051257, 0.13633946625465782, 0.16031377269691813, -0.20990976041072, -0.18490880332134835, -0.14953105984272652, -0.04590402626989933, -0.1715501717171813, 0.2094630783108589, 0.008637484596450267, -0.12986003143793196, -0.08936935206978458, -0.005843595612528344, 0.0012255132305567407, -0.0663814195384538, 0.16012678612654266, 0.022803515852473925]}, {"W": [[0.0888082065425912, 0.03997044950344124, -0.10815960164114677, 0.2217778165380033, -0.11453757449207627, 0.09740266046495917, -0.019943401574631495, 0.12374853472319429, 0.13130767670908736, 0.08398566281320638, 0.05510560457951988, -0.0720959954176569, -0.1933301515128405, -0.01111669357473845, -0.1866612401919784, 0.0624210839991069, -0.07559208030806938, 0.1344556014575466, -0.06667563127540282, 0.10758688264737976, -4.904376587398039e-128, 0.13462529066533133, 0.05639511699747137, -0.14301094091728167, -0.0009296755009286283, 0.15970960896089317, -0.11567179520962877, -0.1150331542413265, -8.751096431431764e-147, -0.1617684807193211, -0.032557811987103225, -1.1428296124540301e-123, -0.14087762896438863, -0.16192908171248363, 0.19341842388154826, 0.09894516402528422, 0.1296498944624497, -0.13984130488423144, -0.08249161117522168, 0.17141361665969249, 0.06400263295521617, -0.17034534006594307, 0.023226588456622704, -0.016832023314993207, -5.40448463586656e-145, -0.04850748622975174, -0.1653513212365543, -0.12870387921717386, 0.10911653386671669, -0.007535569906714461, -0.16602035509151689, 0.156939849944762, -0.05543956172590137, -1.178022423148111e-07, 0.17141174767105247, -0.10618196905076475, -0.19835983158469128, -0.21090578458338674, -0.03694555534685202, -0.1350835438972839, 0.061188933763953034, -0.23609529256238174, -7.76071035725002e-152, 0.16346199797748728], [0.042777958271740996, 0.057847445049983945, -0.032106550484895434, -0.08836513175843606, 0.03746639412612888, -0.030167232668844288, -0.14410109653141628, 0.1516680149425235, 0.03379260026091711, -0.1128777940158009, -0.06865578849140423, 0.037922184056191126, 0.038849526846230595, 0.04959713883102246, 0.14610706387270875, -0.07583093972817463, 0.006784389183310399, -0.02533585630042057, -0.12047938726792139, -0.08752583238554341, 4.32522517914478e-136, -0.06115901359672908, -0.05200987069628464, -0.09614564955948221, -0.20258496108286655, 0.00481308002338175, 0.1265694459777639, 0.09957822688079848, 3.2794995563671535e-121, -0.06171728620021803, -0.1619013684645659, 0.00508731996317423, 0.07423833311140879, 0.07479548599851134, -0.19398711203779478, 0.09609552372950804, -0.1648307492101955, -0.038278681133483906, 0.11222800058137511, 0.17272308559113145, -0.1534513245279818, 0.06390698185368981, -0.06456137108477011, 0.055329904835246975, 2.6096733365141162e-126, 0.09926828908097995, 0.030020135400052786, -0.02699239752425519, 0.11150902204032999, -0.04972129888532041, -0.1031466589501924, 0.09909793814451709, -0.16687789844322848, 0.026085592539273762, -0.09591984979504992, 0.009195124771553752, 0.12901485748743968, 0.2343888677814903, 0.07593920563759743, 0.13128262278095404, -0.1457322627103039, -0.010699764735909723, 5.2491371228838894e-129, 0.0681287080346783], [-0.052072763201988254, 0.039311536223483455, -0.13665787252301811, -0.12995462058115329, 0.11305584342820844, -0.15996302425580672, -0.07366629640166612, -0.3234157994966921, 0.2095110286128521, -0.050203770224533456, -0.08314152814956599, -0.08117599914164272, -0.06329593651280155, 0.13607158229459404, -0.4936922685654406, 0.1819641832300508, -0.2663389051100993, -0.12771130376781814, -0.39422177775086364, 0.08375905253604217, -1.937808323651495e-137, -0.13547207036703204, -0.2561789062318445, 0.02649692011982739, -0.13981262190759153, 0.09052450032294411, 0.034866090702536746, -0.7347399718356075, -2.1511839035579353e-133, -0.2425791439696278, 0.10767073009680783, 1.0926244416492643e-134, 0.0923011133017885, -0.08728471575105477, -0.028416632706459867, 0.029984500318898825, 0.205826609395423, -0.3065468505961266, 0.198400087429798, -0.17869807052543749, 0.01966647766672406, -0.5290978643905339, 0.08018767760419596, -1.1302682439524313e-142, 1.7704602973091448e-127, -0.05520817566718949, 0.12890265014676433, -0.2597855477375722, -0.0804590088047377, 0.0414475775137827, -0.03036996529507482, 0.028590146233792444, -0.06794815067944107, -5.559400192105092e-17, -0.21561357901493747, -0.12208360738179674, -0.1821735880938308, -0.047522828497566776, -0.22251236049476966, 0.1026991359960049, 0.15235463902692745, 0.051169311555143246, -1.012900928584938e-124, -0.060297929709150794], [0.11498145973451443, 0.06036577789145261, 0.05976862725505801, 0.15871809702868586, -0.0417765650064982, 0.13783872833592417, -0.15394389165663547, 0.3006121086850852, 0.16393246942491274, 0.320263611752601, -0.1862960947702368, -0.1536707892899784, -0.1281273100550599, 0.14231372615900975, 0.10900059192383234, -0.20088578279294833, 0.09105789051284427, 0.008087556176288601, 0.12512622438923598, -0.0046975980044537, -1.1769908945744289e-146, -0.002070869953282444, -0.30021502433608427, 0.11006031253372507, 0.07841537473626457, 0.11075418758347352, 0.053186979106882665, 0.022653640293059808, -9.132092925192266e-130, -0.01590470562957574, -0.07580093895958727, -0.03457891265814141, 0.09412292664725197, 0.16328456990012064, -0.11552789762999001, 0.007222704847648553, -0.0765023084336052, -0.10671067650344217, 0.06572233443377135, 0.12915628822989855, -0.009029574549072768, 0.011278857932420614, 0.002691719094528315, 0.04669919700291638, 1.4939019462984265e-148, -0.1543064973479623, 0.03650632529077495, -0.336989392163849, 0.09483868621783306, -0.1605250717051925, 0.1395174662210886, -0.0008226711644026151, -0.04948709972346693, 7.371139773714462e-129, 0.05029189875552823, 0.09915943745391531, 0.1530101933249924, 0.09897057408561538, 0.011496722039792445, 0.061145290650929114, 0.07886584883337054, 0.10718808952107485, 4.386949213560026e-146, -0.017046266841582634], [0.029342667546585984, -0.22129738075918254, 0.024098312197227523, 0.033504289150456085, 0.11037831154673197, -0.12828119942780106, -0.027888392067731357, -0.09409050436335269, 0.05490310289382388, -0.17754816311960533, -0.007071769379769867, 0.03282496196081355, -0.02132031172973218, 0.08085136400648657, 0.0364388482943902, 0.16226249369172413, -0.06886854253284873, 0.07188759146622328, -0.0547980284814609, -0.10166644907390042, -3.0686732826618363e-122, -0.03058841800745947, 0.1280228341372143, 0.135615434140747, 0.07003386502891641, 0.022174515576066308, -0.039999947430657525, -0.18158349080483133, 1.1949333816921909e-141, -0.007344804277858578, -0.12968355466500212, -1.6371687410546773e-99, 0.056990593587553505, 0.06328182367669748, 0.19924984751629649, 0.20184382021028496, 0.032918977949771784, -0.0406714832954573, 0.039649614448054094, 0.13841181685914386, -0.13219579261908782, -0.0017605165092770747, 0.07549379197419337, -0.017023101205049716, -4.170420052862293e-149, 0.07172770697837937, -0.12304938892589998, -0.05093622110806577, -0.04156805542534821, -0.13931994910569076, -0.21675517847852221, 0.0941485229616223, -0.056798402389492665, -5.921515451304947e-10, -0.011993526408901826, 0.13654504496315006, -0.083938371033506, -0.06882357580785005, 0.12235228917034727, 0.1186510917580213, -0.10187836418933624, 0.08048277900628731, 7.534031088245842e-149, 0.03222666097490561], [-0.1437749525608404, -0.20178451249283055, 0.05603368323576209, -0.06931473369047464, -0.025588975442456093, 0.1203210799558209, 0.08433018769156436, -0.426967143273423, 0.12627392419300326, -0.6792847165029223, 0.07664054808223006, 0.10216919781752581, 0.11918821227954207, -0.1306169896236117, -0.16839047581598138, -0.037196510661093966, -0.05631856989923965, -0.0579573106898497, 0.1174923889708423, -0.02124144620203563, 5.96671646091457e-138, 0.16825024360921317, 0.08646811364102816, 0.11706602955040055, -0.1673623150832109, -0.2708688557536149, -0.24223358234881562, -0.10661555726148816, 2.0731348213072937e-125, -0.12732814335844952, 0.03497186057171295, -0.00040756337065894337, 0.10234572804171431, 0.1483213776449926, -0.1359053193522804, 0.027685103266633378, 0.19230043034348707, -0.05540881117996088, 0.15046282009575943, -0.5355219203930841, -0.2511710972470279, -0.21584534485069648, 0.07469620384111406, 0.05968018804639669, 3.3973699664733403e-137, 0.16521188259071198, -0.09482635905301438, 0.05328757401746792, 0.03589279540569874, 0.23893273883871785, 0.052442344658235086, -0.03729595138939843, -0.0026222638492878355, -3.034830620635521e-06, -0.23900252903449823, -0.12367359633205742, 0.1112924871367873, -0.0250768610607914, -0.3482568512622596, -0.18927421180870038, 0.14203045412901377, 0.026513021595686668, -2.3353458281729807e-123, 0.09213086849408282], [0.06372586815338538, -0.10533153935673112, -0.0007860049529320547, -0.06762772255311822, -0.17719616998042206, 0.12781429728188573, 0.13199780729357236, -0.28208378500329545, 0.00909309366498811, -0.14837018307996896, 0.038816528447753025, 0.035544056550610104, -0.09966112969666828, 0.004465495504932413, 0.108223767740238, -0.008109147528788102, -0.1246988185707735, -0.027040914022054694, -0.00552174761173715, -0.12413778091303683, -1.7806706687972895e-131, -0.05141861220361413, 0.04987332711308763, -0.010611651429727899, -0.006487444815972241, 0.10968263013814782, 0.1604386894767331, 0.13515808169735638, -4.707122531447313e-137, -0.025596270889776288, 0.20561347602414118, 0.05480737807175054, -0.1336454260440206, -0.10280572563176246, 0.003338448426277803, 0.10084418327520152, -0.017015733135569793, 0.006558118026648611, -0.06242434661337519, 0.04591261570564428, 0.0662796341320497, 0.0007400588707417233, 0.1705497567280743, 0.0773243073560097, -4.57152128425503e-133, 0.009403629080882063, -0.09770684168276453, 0.0956056269450542, 0.04045083819341835, 0.05173298665121062, 0.14236613936828627, -0.02614171313159851, -0.05419245908330367, -0.0009125366504892141, -0.13903809492756694, 0.04047137185807617, 0.08373575096108515, -0.07444996955319877, 0.15256485550163748, 0.1416750298740284, -0.27525874081047946, 0.2106587035701951, -1.2150577747884885e-128, -0.1517203082279402], [-0.11028975630167079, 0.1577487715325307, 0.019988128404546945, -0.18898825291642316, -0.0054317616160011375, 0.05410516018758269, -0.1840433665378852, 0.017624090206515855, 0.10905356101488066, 0.05904802121030333, 0.13031644692112454, -0.005258600629468896, 0.15738547419593005, 0.03288724190624291, 0.06252819951128218, -0.1387368754339238, 0.1382965099124028, -0.034001994495071096, -0.13943967602497656, -0.1417612847973787, -5.798801741419574e-148, 0.03046086928967891, 0.15850493829205217, 0.13644433988712376, -0.1973872231916608, 0.06293331176524891, -0.09694066098146041, 0.1436292396151999, 2.3298507628714325e-131, -0.019452535381554132, 0.08612342146784051, -0.0719974352211607, 0.018244484312579762, 0.12602251672556514, -0.008840809717943826, -0.039124569936043796, -0.012935079360686533, 0.12737247476618357, -0.046611921293108795, -0.19326475709625202, 0.05827320472879126, 0.1162033379284688, -0.09357909567704382, -1.0370274434347657e-07, -2.1800788834764203e-129, -0.06720872590757411, -0.05432788576720258, 0.11833387199801505, 0.07449791367921771, 0.09991927889543069, -0.005510797107449567, 0.0911994684341005, -0.037460818453243665, 0.05340968222177175, 0.0965373213384388, -0.14300969532966337, 0.0019450582558117192, -0.1383127814503619, 0.00788333372920246, -0.10874654132924422, -0.09265060452808695, 0.1229641507777283, -3.6686834812889995e-135, 0.08473172381105701], [-0.08178649174126026, 0.07513823543430932, 0.04234696564065925, -0.030516937426957356, -0.07665236638036237, -0.04073273011458824, -0.18637960996710196, -0.03072566341505962, 0.09888458330981474, 0.1385432140852998, 0.10579932206811754, 0.07774705422437282, 0.062419892431906744, 0.08282546490028002, -0.10242041989147922, 0.12020454954810715, 0.13235330762021227, -0.04354852739356642, -0.22216156018567698, -0.02100741707756873, 7.342416845834529e-150, 0.15847403211303657, -0.1409146550058923, -0.06678114405657842, 0.11890273643240085, -0.14172703069223624, -0.024285904996004304, -0.21951343473770824, 3.4739618224201555e-137, 0.09097768829517894, -0.024712179329456452, 0.08684015342115921, -0.04194662218076995, 0.11430751191995871, 0.11977856662440672, 0.12525517934056493, -0.24224492200593795, 0.13897700852630326, 0.12655188430027905, -0.033656796744504495, 0.08164955535053385, 0.031094302976701245, 0.11391077241080468, -0.09880167375725436, 4.0618818222112e-140, -0.014950738152496604, -0.1828487610379624, -0.17901942967125223, -0.12256050177406648, -0.0037173463875002093, -0.0875827914329587, 0.015723503350910755, -0.13994810796865317, -0.002802311440746887, 0.16141969286751756, -0.18771369655219627, 0.08821799871961415, 0.10717121509498578, 0.10705536373018698, 0.030499919820442898, 0.17595257958194518, -0.09134196787992414, 7.569517619444069e-124, -0.055964502762735735], [0.10797120095348216, -0.17280042084201397, 0.008235403123898736, -0.09708572616443141, 0.05194507716989243, 0.053055886240631824, -0.10089533850355971, -0.04177080862573659, 0.06197919037185018, -0.10239356611264397, -0.15786669379716536, 0.18150820846437665, -0.014567792118015156, 0.04747855245409977, 0.16358458080865487, 0.05286628781709534, 0.07375234445996179, -0.02179595198267127, -0.000368585351993801, 0.0785026938319003, 7.788963490861136e-135, 0.05246820878904194, 0.26093593380638447, 0.08815124538907984, -0.010932485305588654, -0.14050045315045848, 0.006298092037092137, 0.11419444908400053, 7.956058258380187e-136, 0.04999089200595691, -0.21708713774659788, -0.0409388484857249, 0.09052259377147803, 0.11088707843211368, 0.10530798016960882, 0.015451779835251705, 0.11123062992012789, 0.029817487512661493, 0.058113207902978456, -0.4983242720245247, -0.23995821807957635, -0.03637833059487646, -0.04144778435197577, -0.10356490264416877, -1.8809967469546518e-128, 0.002614106743372067, 0.1574801191267623, 0.06754292629307979, 0.04909626546610327, -0.0498317167375912, 0.02444367390075174, -0.034743559057903425, -0.09719864340543792, -0.002392511964380194, -0.19497568471118878, -0.19959453123409007, -0.018788265146354673, -0.1255003950591574, -0.2783763313566364, -0.09061878538786264, 0.03238995226778212, 0.04995987314294413, -1.1482481962068246e-150, -0.039270588856333076], [0.1378942927372314, 0.04239411865081071, -0.03617045635048852, -0.005192005542751884, -0.17029804140770322, -0.05898142832858569, 0.01546923514654955, 0.2241721009035568, -0.007198471035850371, 0.0905289420545688, 0.1439037295474979, -0.09574669872554704, -0.0938874951426007, -0.08264192819171558, 0.03180244161841964, -0.14261802279474894, 0.1916255340571978, 0.03595583337828137, 0.10459202205612385, -0.03789252229050567, -8.766918973515691e-132, 0.1718805822578087, 0.12599836352489593, -0.11579848182116662, 0.0947282046896664, -0.16841732124347963, -0.09164593623942817, -0.14280402002748802, -5.097573704974669e-146, 0.03769366085044341, -0.14652365199356202, -0.0497926071064091, -0.017800006765701974, -0.06253714865551914, -0.20165966156817916, 0.006436283415833227, 0.05554221037634991, -0.1156337565842907, -0.1702127837265959, 0.007708737312325246, 0.0842557983076432, 0.12524681514758074, 0.06782602994485958, -0.04977569855231363, -2.0987015686595845e-148, -0.1946805604454902, 0.018472372737835415, 0.18812462341626604, 0.10773405679607694, 0.061605822881322464, 0.02109369910489189, -0.12042587995374181, 0.13531539522649014, -0.05713813207878853, 0.013217211357151783, -0.16258595274106055, -0.09332023190924221, 0.0766423458752521, -0.03822936818369134, -0.015787609150853296, -0.022554648238384267, -0.09673229806760697, 5.608379263403831e-127, 0.018390482700640035], [0.03123869974723746, 0.08294052295688574, 0.036422104813341113, -0.17973436932612297, 0.03168194520378046, -0.10597708536758818, 0.02815707405701144, -0.10898720204040868, -0.035244822366383835, 0.11842011439078343, -0.03575012510545922, 0.04333616389114416, 0.24784904661764814, 0.13472156931955095, 0.130286787796126, -0.04011803002322933, -0.11138543637473294, -0.034113139248585236, -0.1643131663138966, -0.06480470788020257, -7.415623516443617e-140, 0.060988191929238815, -0.09153306958782749, -0.20078609366219435, 0.2554898218698882, -0.18993475455886027, 0.15108502735382356, -0.023280634508495136, -1.5907037025711894e-130, -0.21526862168564617, 0.033463973174794194, 9.373121828972461e-05, -0.03337626028459857, -0.14737809759357298, 0.04554007918585125, -0.31078888447975156, 0.11894540677715024, 0.0034877643375045633, -0.013012303597795889, -0.38684206064947263, -0.004838048614611077, -0.11584107793862422, 0.2425681891638997, -6.16601179604568e-05, 8.472031953907849e-151, -0.23725803921887006, -0.007371234458400341, -0.07320585500394297, -0.04897757966027416, -0.1346065949761978, -0.08633133749052928, -0.04303256719374057, -0.2049555831817416, -0.0031040285280297163, 0.011079705718357324, -0.03598886672150638, -0.1241340727730416, 0.061620759712903275, -0.09560988984827633, 0.14483043370461982, -0.010832560174804532, 0.2678127113927301, -2.8811691013561793e-146, 0.10831251276763268], [0.14516265911716023, -0.11393841260026977, 0.1298032826846929, -0.6646858293694484, -0.03170575406525916, -0.05333084551926054, 0.01500242420879687, -0.20952874482313288, 0.05146371407915203, -0.1014037648818835, 0.04578864935051172, 0.1690891241579401, -0.04545357978074462, -0.20058651786638546, -0.04871531570072594, -0.07724845963949263, -0.10451919817979018, 0.012236779469855498, -0.02215724183026957, 0.19249694649489904, -3.564902262542763e-148, -0.05588418815335063, 0.16739235334697922, -0.18933454626033952, 0.009350263258230847, -0.17209267788511867, -0.10831243572867968, 0.023740072862389286, 3.3211439294197565e-118, 0.1985595499522232, -0.054335544969650366, 1.0436760337599502e-147, 0.14538441889360681, -0.09922400900771088, -0.08061324856294579, -0.12720345043237916, 0.05273686166237389, -0.011135905767599895, -0.06385508000324928, -0.19045609991265022, -0.031079898241060076, 0.1477484664382068, -0.015762015967455405, 0.08570451391260407, 1.1791621110733615e-128, 0.20062538400734028, -0.06271087959127528, 0.2820827111315121, -0.007979277943761702, 0.25044011268580646, 0.0938226446072267, -0.0895579188935977, -0.043965284945659246, 0.000492918382251428, -0.0959716911624553, 0.08994755869219227, 0.17258055820847432, -0.09334972491471392, -0.3266150437257712, -0.19017856224686164, 0.026064241917709025, -0.12814209605790125, -8.09109131944936e-151, 0.002935193089827796], [0.10716917781431637, -0.11137257957415705, 0.09596454225703722, 0.17148959575915998, 0.10738391648495509, 0.06006681327704193, -0.025576685404581304, 0.12956458213549482, -0.0677579542379673, -0.09777171876845292, 0.07923364944043233, -0.029237189395044855, 0.07411389561898603, 0.19426493421471394, -0.18767718576522746, 0.089487968352819, 0.014700774667539801, -0.008955427058174741, -0.17994852287305793, 0.1609159491860189, 3.544359675408283e-119, -0.006339605140559052, 0.06097446440904021, 0.10462909929664085, 0.08313666915428776, -0.08940843404759426, -0.047015137073751205, -0.11398509705623348, -1.7337516656787736e-132, -0.10763075142933982, -0.08689715149807747, 0.0750591417553465, -0.14249250781767037, 0.14337713570601807, 0.1439525498746386, 0.11974944767410169, -0.12343698122714822, -0.2696031357062838, 0.15063161659904284, 0.1270189496137904, 0.0737196645634837, 0.036160870569133884, 0.12153371082687908, 0.0345758836841173, -7.552873235216204e-143, 0.15447016501781713, 0.0992521544913666, -0.03937095413393847, -0.1414383877861217, 0.02170152398221317, -0.15156384334147485, -0.0014195820086456584, 0.09988718435008614, -0.0001166446017291339, 0.030058058936784204, -0.15208419607444246, 0.07705500766996444, 0.21715204257802484, -0.12577122747346667, 0.10875004743517465, 0.09897227447864428, -0.06758956398928805, 1.6773410465203317e-123, -0.01624659513233671], [0.10610015000251954, 0.0685684268453795, -0.14986064821968684, -0.03980634228422123, -0.05917541668247716, -0.08147773819781141, -0.09858270430406724, -0.2544196047986519, 0.122027348118423, 0.06440868742570063, -0.05543052121752567, 0.14469937615536393, -0.0649246504611606, -0.009412148670592087, -0.06673688382742798, 0.0637052427656123, 0.20967079031680397, -0.03929453355031244, -0.09759971083904723, 0.07427769070513418, 5.6218471883021004e-127, 0.15861621150202235, 0.045731701872589015, -0.01644232480859704, -0.062238212329707554, 0.06363292417876887, -0.12274259408580585, 0.04546748283115126, -8.092425317788215e-136, 0.04809294988857026, 0.0888066660035739, 0.08455028902673191, 0.04451812794335825, -0.007533182437892994, -0.07511162525507392, 0.140199868518868, -0.08296239570070348, 0.011670209783708231, -0.06667637404599805, -0.07574637839457801, 0.06105180892280975, -0.06671582322404929, 0.05663976439193903, -0.0561178477170652, -1.4163400956027724e-118, 0.008099245182570297, -0.1639971368695686, -0.010395012722527696, 0.1106150503488823, -0.10479107799108639, 0.10190984314772356, -0.11423715634097538, -0.08729683022279991, 0.002138417978457017, -0.015535765275621562, -0.18219527865593138, -0.03679553490949858, -0.13754020814511808, 0.13582515225635963, -0.06900601787314106, 0.1389283456694424, 0.09532343683633687, -8.0121861431683e-148, 0.17904760681538331], [-0.02122148939301894, 0.10980512808740728, -0.10573544139102539, 0.09930432018713223, -0.08156686573001114, -0.03343155221915661, 0.027491290703682725, -0.004741210428555078, -0.170623755699418, -0.13558239942280653, 0.060092122660081876, 0.045130977967926984, 0.15944069806647782, 0.05113204325984841, 0.13991661769056324, 0.11962027009876654, -0.028719946594395432, -0.11551102061255757, 0.03807874346438363, 0.05793350122726383, 2.5764867797566275e-121, -0.04303427002389388, 0.16953151063985658, 0.009416942566040016, -0.04105095453101846, -0.025740852876513, -0.09474023227120211, -0.09679512974078282, -2.8534636166772084e-144, -0.14804830856121307, 0.06365009925599611, -0.00159805111909452, 0.15455096507280303, 0.12122671622883996, -0.04974908525510083, 0.06508250605965124, -0.0036750854226271306, 0.10857225822346304, -0.059597079799162046, 0.0852231595906214, -0.002880482730648828, -0.03132634697057911, -0.11441490918148199, 0.018329234580356523, 3.909664823141446e-137, -0.005558311371797788, 0.04251133132644468, 0.022811842914807468, 0.08482253296688315, -0.0715103679219147, 0.11092083699354703, -0.03572812120681296, 0.0051851308463953735, -2.1313692937523705e-11, -0.059741108084323084, -0.013347297656062764, -0.10625712661688907, 0.08366643628004902, -0.13903264172369342, -0.035255979799195224, -0.05859775982072328, -0.15078759828450441, 4.982178680388821e-127, -0.04695915925800433], [0.02565308048594668, -0.0032230772648203557, 0.0021171859195821745, 0.08162106655603117, -0.15941113446291968, 0.003231207709641709, 0.08806190675712791, -0.06582629905114948, 0.07446859011707434, -0.23901297732408017, 0.07325808412162152, 0.11647115975001364, -0.009011908107057858, 0.18037801523511515, -0.1232795734034811, -0.2339012885804324, 0.0742635695947558, 0.08482745194904535, -0.14015668009077517, -0.067771214729829, 3.7141074996426677e-119, -0.05256293262362662, 0.17438135288974455, -0.020890792365542872, 0.0045131334979668265, -0.0305295107996789, -0.16773787156667697, -0.058004955743598964, 3.4620779595012237e-143, 0.12482434708779451, 0.13027555143250097, -0.1653933576976653, 0.14539586174486668, 0.14951128405520137, 0.09666330262407584, -0.023966195494191943, -0.04091045110802026, -0.01258948343719078, -0.14262450436640658, -0.5158417716490685, -0.21949653513258544, -0.0628448208734974, 0.09215926665021767, -0.003555929217835458, -2.8079322440963534e-122, 0.06697461328023324, 0.1387075027690648, 0.1712407960487899, 0.19371269369936606, 0.06925075270899375, 0.14355212369546577, -0.14174238888175333, -0.04409444229379593, -0.013784668369635779, -0.017890352033702237, -0.1457926732538814, -0.01920342122545847, 0.047385434242634035, 0.01835986879999637, -0.1621316845325463, 0.10862206181588326, -0.020761165009841778, -1.9617965634403915e-145, 0.11544877171305284], [-0.10550464134529257, -0.14682786628812536, 0.11829598976298714, -0.04102429482876278, -0.008597798915214191, 0.13572121340709495, 0.020087849574195366, -0.1606032838012187, -0.10353793796990499, -0.22531670832064135, 0.036681759762998534, 0.0008983878335400944, -0.2190005143468727, 0.1543117637101273, 0.047155020041181155, -0.05856251311898758, 0.04376966358367462, 0.034672594957640725, -0.18097922193829027, -0.01758298032127755, -4.001300579453764e-132, -0.003988395269436727, 0.008744514380314103, 0.009782134136847302, -0.18983611848176993, -0.03141499687204652, -0.056442448721543415, -0.11075747471067533, 1.81310718173555e-121, 0.10124243177725345, 0.1336822950196621, 0.010056615077206527, 0.11820961492031176, -0.07100778941109126, 0.16942849954443115, -0.052089089114892316, 0.11161567912792285, 0.17142927397720395, 0.07708111160622, 0.27010870208812304, 0.03887100366863774, 0.02668217912068326, -0.1354335087359937, 0.0028092746997185635, 3.073903368084344e-123, 0.11318246795722509, 0.13573437760299492, -0.042839827736603726, 0.1463312970176607, 0.09706063321151624, 0.048547663643892604, 0.14170546933721548, -0.007813091830545793, 0.000996408054909172, 0.16719554953228466, -0.14908225047927637, -0.05373323491784406, -0.0013151918649955022, -0.032034435835527904, 0.09158035983595787, 0.06820871501845367, -0.1657283356553187, 4.435004399082252e-148, 0.09299595857831423], [0.021437888736823205, -0.21480314370576406, -0.1655991942116511, -0.3250379042873825, 0.10867362339643762, -0.011679126238003155, 0.020079189690434, -0.17711016499573864, -0.023090204248738404, 0.12220240294421213, 0.043039266884871495, -0.05598721870134003, -0.05004776673713624, -0.2594680832853805, 0.06435565207822905, 0.06404185113827929, -0.00011421570292635908, -0.025464287542512905, 0.07483788787713685, 0.24858825748227498, 3.0160827583414683e-118, -0.12580167194377456, 0.2912614341491044, -0.004246176934277185, -0.0865847709513159, -0.17674544616633425, 0.06561913555938968, 0.17394978967240846, -1.5234006588908426e-147, -0.04013828637942408, 0.01152247104069521, -0.0489839232798244, 0.0818868333525304, 0.0788199208189193, 0.003260351681877529, -0.10869391955735448, -0.08703248698865161, 0.1947216696194499, -0.13165088248747864, -0.26900103719023977, -0.3170820578614902, -0.06155268475760134, -0.07303092939849966, -0.09208320180753213, 6.026689556112821e-128, 0.03763954259561487, 0.14052411267118609, 0.21265311684383684, 0.08331001058806176, 0.09610511617418893, 0.04173827754864215, 0.020229751372234765, -0.08157966943788574, -0.0006726377074127961, 0.12070182705328138, 0.12344404848649825, 0.2296197155527816, -0.03408922094217531, -0.001153783064652257, -0.01750655600592141, -0.03253497083357077, -0.10247612165911459, -1.1525696544942647e-146, -0.04739151816405413], [-0.016029068261881316, 0.15748056466145638, -0.07045925533833572, -0.2118416898405574, -0.2147843520491383, 0.0589919720220817, -0.01986914523055891, -0.010882074079814131, 0.11827212521153863, 0.001352188015076293, -0.05615577139079948, 0.06767683648266248, 0.2090019665753346, -0.021767130102562444, -0.19786490749624655, 0.23785233423375726, -0.13028305399825107, -0.09251372355349771, -0.26636597185984745, -0.18841529242832888, 1.9603903535635906e-127, 0.09918960417006371, -0.03606764583933892, -0.0942947211734402, 0.20975377357695463, -0.11643615839145004, 0.13764571410918494, 0.015626053740053977, -2.653861414694425e-141, -0.08218415060091512, -0.1344389053294242, -7.491489526895941e-13, 0.13107449744846927, 0.1448892815480195, -0.030668731907849182, -0.11576778349902865, 0.27424153167428705, 0.021910743832374048, 0.014796484824838758, -0.19915764362728547, -0.10333074500487494, -0.038902511597665855, 0.2899399691529001, -2.1291459004916537e-131, -2.1653103578504035e-144, 0.08306537795470009, 0.14402529807847556, -0.10494536145098683, 0.09500980113149418, 0.09646547497725627, 0.14319573253001266, -0.003086156831410719, -0.06946618426436114, -9.846826541952622e-05, -0.005471594835712149, -0.13391054063542768, 0.04741154355035847, -0.08786158700276568, 0.12043130746613172, -0.08352126399875211, -0.037085251219541544, 0.053523252221269274, -5.070328361335253e-140, -0.04212016945265899], [0.15287743753377708, -0.20343069235581693, -0.019326752793057383, -0.10567294329941168, -0.02880228990761062, 0.13439472332565236, 0.07118639642228047, 0.1797518274549501, 0.11284937017039214, 0.2356135039947828, 0.11857550997660345, 0.09734743782072114, 0.020742172316490386, 0.11212220940146247, -0.2291409374049913, 0.21856943850539878, -0.04988380429648935, -0.06536316059753935, -0.22734474261063659, 0.18488595127988197, -5.589227746622235e-129, 0.10689247043896613, 0.005750918875669994, -0.00027334300275111124, 0.2647487426752315, 0.007083777496539139, -0.10569500647503079, -0.03768528381981009, -1.1755821015099482e-133, 0.024812827294072602, -0.0593628146560769, -1.5068099360535898e-12, 0.1426691505104473, -0.21193996133720963, 0.10676203266319804, 0.13945530207907214, 0.00808103996016853, -0.1920266006203578, 0.08144850053138221, -0.03201801230445719, -0.0036761955705817825, 0.06884567880662494, -0.25471491648886097, -0.005491090901744952, 1.7503267804494662e-138, 0.14864070186888634, -0.14017647474816014, -0.008188708283123586, 0.05072461926812368, 0.0033482708235835117, -0.2613631510066308, 0.11427073362165212, -0.20105388563561552, -2.3319039033237655e-07, -0.14198735352815053, 0.1011489768137185, -0.03658983908714362, 0.05929651873387075, -0.15585105022321658, 0.0273224492544073, 0.05127622087039278, 0.2250698755591927, 1.101799458919125e-125, -0.1613893233436008], [0.04339799262414984, -0.35960328477908804, -0.0011345068911047392, 0.1835494386037729, -0.04751146990572977, -0.10806395306377213, -0.04226417816692786, -0.14072281058105301, 0.10707203608377326, -0.023821748738206767, -0.18571793801592212, 0.18236845306151633, -0.2752760717372524, 0.009031223045507807, 0.14309743110522297, 0.04525121496524056, -0.11608015841372284, 0.01559674489389911, 0.2899492659738111, 0.19520332287484732, -1.0622197286280786e-141, 0.05335357296862302, 0.13968703629567294, 0.049406530086178554, -0.03998113953246843, 0.020149297453676163, -0.1594640292542566, -0.04368378579073339, -1.1454220524439441e-147, 0.19287985558268925, -0.2587401620474781, -0.005048175021280399, -0.10930946424492796, 0.23006776704680093, -0.2775617529679443, 0.05822768373564704, 0.048504962357857014, 0.11856273882958154, -0.007279199020837066, 0.0984320059524627, 0.030946771981268356, 0.05525410925072736, -0.26138770666993455, -0.02190474216109631, 1.7263702490671477e-138, 0.021376591350508387, 0.03144786921783549, 0.25390668255402044, 0.10843546548374541, -0.2243436843533935, -0.29684256780985374, 0.06739447259064492, -0.14724588069088881, -0.04400248505176895, 0.09551629476889803, 0.007012531133530753, 0.1764272162147507, -0.10888443327533219, -0.1506691337686301, 0.28148623051405897, 0.0082429533262577, -0.0466307107441335, -1.5791388565015594e-139, 0.054795142151377464], [-0.04104945963820053, -0.050706910025880736, 0.012586955550883029, 0.03226770796284258, 0.12595031600701198, -0.16155357496673098, -0.10936718475988828, 0.08529838303437892, 0.11913942494306158, 0.11765567704009239, -0.13004750154445555, 0.03324395142407628, 0.049083700634387405, 0.041510160475752365, -0.008691387305390735, -0.16852773860680942, 0.052562657905135556, -0.0984321320790268, -0.06170496669587611, 0.15579444544237991, -1.5533727088072703e-146, 0.15636995376759455, -0.1366205029913105, 0.058604977264774503, 0.11212957304002795, -0.2428081015842965, -0.13445617068825952, -0.003412543784587169, -5.1679553512247e-125, 0.02846783779320088, 0.15292919244832132, -0.03327566435721064, -0.08508689916951225, -0.0098744623868244, 0.0883760034976222, -0.18447021163937224, 0.00906161156121181, 0.06379636298397762, 0.03428300814733993, -0.3132541846659043, 0.06045047800854335, -0.22565722326495857, -0.056542123463525495, 0.0021055765540821266, 3.907402882905297e-137, -0.20574993330538957, -0.1063723379788385, -0.09074574238703897, -0.05446688840131128, -0.10685042989854794, -0.14673567832905576, -0.02970910015773106, 0.03069416004543982, 0.01070441563338825, 0.02354706761291414, -0.15975330299820154, 0.1338611930363855, 0.08028448027933001, 0.09036124951607921, 0.08083071504405681, 0.24653753965411113, 0.021006299166590723, -5.355552998157105e-133, 0.04871606840193584], [0.19024279088206164, 0.06275561769549436, -0.014844420023733878, -0.12925409416352676, -0.07889713254402031, 0.11907793096985235, 0.07956319667900445, 0.1485290879494269, -0.051358206389134714, 0.07247060223946118, 0.1077012807166343, 0.049611689904060806, 0.08216090154662527, -0.07485411590904796, 0.07056594416400273, -0.21147840234640752, 0.10359423605006433, -0.03222440540463735, -0.002440532011234167, 0.04533683707535986, 1.712283260770414e-122, -0.14022490440745394, 0.14448098972232787, -0.0289207509806434, 0.219988872277767, -0.2961909031793801, -0.046404244642936625, 0.004527304935093235, -1.3289105487509078e-122, -0.020157037864339727, 0.10841252254345064, -0.1356446714832971, 0.13435901494458866, 0.01738316686762188, 0.09836325039562895, -0.2904453269914737, -0.1492892948498345, -0.13527349390944052, -0.13574755547897702, -0.463492374721568, -0.4608997776208514, 0.139043109299003, 0.1255962009627742, 0.04576994553689135, -4.5270646282686566e-126, -0.4952983294228563, -0.0793047345092937, -0.044252466311392936, 0.012351389679822524, -0.002811720395489201, -0.043424814911916736, -0.05670285656568443, 0.09181434102112429, 0.012903667033298151, -0.1236142843932635, 0.11048667212823557, 0.09269544864309001, 0.20894652542738304, -0.05003883620223026, -0.10804951249833075, 0.1443039634757069, 0.3003376653427052, 1.8785759579632874e-125, -0.018381223106304245], [0.01587464386699074, -0.21012955163984967, -0.10969919317923126, 0.25496589428330135, 0.06385834749103095, 0.09551749550493109, 0.08609253727725186, -0.06424516227979953, -0.02513855580466737, 0.027960611266755225, -0.15047854817851386, 0.08232275435420171, -0.17335964436804077, 0.08686149172350309, -0.12353344802403862, -0.04796348575451815, -0.17602776670873266, -0.1668562289015352, 0.026443637521892785, 0.12893643287786635, -5.555801900296079e-151, -0.10955050152089554, 0.09001987910226432, -0.08355872471030054, -0.11885301704729825, 0.13945766077885852, -0.1072218550059599, -0.16812654330113344, 4.5547019976565476e-126, -0.06082437874119816, -0.034153530617312834, -7.04399466365333e-146, -0.026286833239434804, -0.17388542533593906, -0.053305213604330735, -0.03700130138552447, -0.06998655028444199, 0.07651352437664125, 0.01742160451558485, 0.02418460184054606, -0.02725694583278773, -0.08329414487725734, -0.06643506565870164, 0.008163072445319214, 8.501966021474273e-140, -0.04792582256538524, 0.003155799797129795, 0.061184471813339365, 0.13313150491721318, 0.08355285835488342, -0.0593794122903436, -0.13131364249363128, 0.08697519944931799, -3.1782075478771534e-09, -0.0655662744541676, -0.1485505470693851, 0.09478843074141544, -0.14507236426230571, -0.08467752173366658, 0.12082417069253718, -0.09228469342981069, -0.08853602388269238, -2.1897557159401094e-147, -0.13511542440209703], [0.14019697297813977, -0.12364100292270519, -2.7495223501107534e-06, -0.12416379436656368, 0.007709780887576112, 0.06090035430213749, -0.00982494665646588, -0.03020044113900099, 0.06570549785890052, 0.11449323170159922, 0.08376972752811614, 0.12842983905178487, 0.0939068808991847, -0.09919720365304244, -0.0010553644379005312, -0.04690661289018654, 0.01395403634031962, -0.08617674809593208, 0.246584885232289, 0.09836397871280024, -3.584795678301991e-149, -0.13972813630652145, 0.04419727709962016, 0.14031590569223723, 0.2498995734410871, -0.1286297337849686, -0.14394109176502826, 0.1213179437680951, -9.402944908858921e-146, -0.026414452453823716, 0.12368332744908091, -0.15859726555006226, 0.09289441670172903, -0.1618522021424346, -0.16002349252097758, 0.1268109501701169, -0.06744892789736243, 0.19500809925551849, 0.06879384186330988, -0.1002595565349486, -0.12217920628168102, -2.277174903670518e-05, -0.0365657720730635, -0.1315283087746512, -2.946610638993566e-144, -0.038897510211441805, 0.04569634676948681, 0.06649428876502063, 0.12752457116877372, -0.017758096034891334, -0.1552348718878528, 0.040253314223724725, -0.07055402233333442, -0.08706276605162205, 0.08217619922465362, 0.06451771551071922, 0.08489112346723285, -0.49391523475029736, 0.08203477699813139, 0.0058697183640759945, 0.05328222916087306, 0.16758464634708545, -6.753555129242989e-133, -0.037448549404109466], [-0.08205066084557074, 0.10666617926617732, 0.024772738668730757, -0.30710846049071355, -0.13278645974268088, -0.18151690510708557, 0.14955344883306324, 0.0269670191362005, 0.1722606891120656, 0.08663129284092355, 0.006727828719492997, 0.0304869556005299, 0.1729384463597504, 0.007238473145835863, 0.06906628223845503, -0.14930125016364001, 0.006530577569099742, 0.00517133409705166, -0.1429644576230508, -0.22549009273831835, 6.059658479609083e-142, -0.07585121445412031, -0.21578784552299377, -0.09872557751246365, 0.23415502124548312, -0.20495178072336545, -0.0752787506985303, -0.10041562751264936, 8.82912200244891e-141, -0.10071946743430396, 0.06422266515082442, 0.042123318911050374, 0.07791980390227345, -0.03682265142347577, 0.09169576059069018, -0.3749757801323479, 0.14451626082396868, 0.08116284670070287, -0.10423088742457395, -0.5159470050481066, -0.19941042385638308, -0.07259476439319147, -0.021894506027211012, 1.4445506278499397e-146, -2.2545476476590373e-137, -0.02182128293583726, 0.11728388724270339, 0.08759271384750705, 0.1257560101083343, -0.11773194646962022, -0.12319330765026269, 0.0382659885060676, -0.12845143489095284, -0.014169844361511471, -0.2682776982021646, -0.10004952605998327, -0.17763613914632487, 0.052109554843459624, -0.11373204786971061, -0.020532822622051066, -0.088275994950665, 0.13772110582329203, 8.583904345246307e-142, 0.14136192283358262], [0.07898834432075211, -0.16440568620519885, 0.01941559776011417, 0.26863907191825437, 0.038617914501006816, 0.09951322179450683, -0.14644456830036426, -0.1368126079284931, -0.14316973463888588, -0.23283912737864265, 0.14117115646638367, -0.019005670872149737, 0.03937101736324046, 0.12303993128701678, 0.19912602728950524, 0.22869511797131692, -0.007165955624558189, 0.038300949076682266, 0.09175951326539361, -0.004780599274064491, 2.0603367183992124e-119, -0.07040829592523996, 0.19563676601893082, 0.1171203614539995, -0.13001756783202534, 0.1001128947726924, -0.10850323538135156, -0.17966006370305737, -2.2766742153541296e-135, 0.09885107613472648, 0.03957529535480084, -0.11032812472489387, 0.11677351682040363, 0.07364467792561655, -0.031980189505141594, 0.10928449312925446, 0.10947886628091966, 0.07441138132129398, -0.045377960784342086, 0.2684591330047811, 0.08868008877828087, 0.06913432094172937, -0.024313467135349383, -0.05056769831374745, 1.378084772453338e-135, 0.08493991565241536, 0.158443821622612, 0.28377814752836894, -0.02471919675730426, -0.014521762139269293, -0.15555112054427264, 0.008352899060932032, 0.15766143756935275, -7.35075056501483e-11, 0.21435583943415826, 0.030126717251790315, 0.1326025298763505, -0.2995590644129852, -0.0030531050115790827, 0.06821659895601279, -0.11353301586360696, -0.11715477581587123, 2.9997949229638824e-122, -0.08992934304316741], [0.05825951947297833, 0.07088972208760598, 0.040863034657282325, 0.020850883850367905, -0.14564575362259316, -0.11116418037691436, 0.020785416864079677, -0.2452980875693647, -0.09762755298469084, -0.28432785869377614, -0.009788946985726259, 0.07401999724672362, 0.14176083716545684, -0.07183472521988184, -0.17545864923274587, 0.10427520211882564, 0.10716087296840707, 0.025310982011445344, 0.14270291126784249, 0.0970769658783206, 7.519839116747328e-121, 0.015388359286615158, -0.020306477860511308, -0.05761530265856316, -0.0774101879057991, 0.017845942443380867, -0.07790978221907217, 0.12513275723906553, 3.806121812684446e-147, 0.01718826731863673, -0.020574350453943357, -0.0027113037554064327, -0.11640459183369865, -0.0037228865932665326, -0.09968688456128787, 0.06922610801147606, 0.09934455975509217, 0.11200302004248748, 0.1385524932423277, -0.09818233848691982, 0.09617842542665983, 0.2507645134981347, -0.09603624611698275, 0.028650059912271503, -2.854480036259906e-140, 0.13630548807778411, 0.13756441083297852, 0.007728700577436938, 0.16965960230329666, 0.05861940935001636, 0.18458885826238403, -0.017964780561327394, 0.08765012987397407, -7.13617839507517e-06, 0.0017044299880829325, -0.19432377125525227, 0.18306597706708544, 0.05359658354578525, 0.15868942990486173, 0.17469001944035306, -0.19329575671887972, -0.02685478837089944, 2.667665815906167e-123, -0.08582592793528734], [0.01872159911122247, 0.03027734510288278, -0.03360854168042603, -0.27338198219313065, -0.07756756326803278, -0.13486430245962572, 0.15171067091711382, 0.2281905104301559, 0.14308537319441836, -0.24018845431088254, -0.027524389714121748, 0.11731158751212267, 0.07062342373623998, -0.024974681487285107, -0.1677062289377069, -0.26458662372693204, -0.11117974728479828, -0.0867784102797431, 0.02509416600235468, -0.25701987334858706, 1.4318172685356198e-133, 0.10036176464895305, -0.5839400210727499, -0.1318637541534264, 0.2385205061333848, -0.17294401445667404, -0.11480962744183452, -0.005691919567629438, -3.7584583505500414e-140, -0.10108480527338333, 0.22835186015844539, -5.11930040672556e-128, 0.07251833020458183, -0.049441633729166906, -0.051996629024299676, 0.020418741223723943, -0.055207095040525886, -0.03797444070945354, -0.05927066090107905, -0.10703075462533303, -0.09334567746597075, 0.17001301217165948, 0.010923057820910421, -0.0054399174266706206, 6.8049449115133006e-149, 0.011730425622750465, 0.010498358452959633, 0.03867804603704704, 0.0943762535657806, 0.19847843501903512, 0.05967743389437133, -0.015134024083375656, 0.14886735248437724, -0.00018425818658461725, 0.08542621459359945, -0.090410823522594, -0.019253138083471063, 0.10199964296299364, 0.08909438348216779, 0.01075298767203706, -0.0021668470576296298, 0.16147659359065678, 1.032803461662268e-143, 0.14477172546132114], [0.02264838376646334, -0.2706484781043308, -0.014861856180626144, 0.11345911440719714, -0.14154800479886737, -0.10622459696179384, 0.1292501255630856, -0.01448761274406513, 0.04657562118147543, 0.1747305004226874, -0.06760256145133525, 0.010231934475844395, -0.1876732871157174, 0.07558293620943946, -0.05751194827053214, 0.038021005024723005, -0.06982096239960688, -0.0003943632106734724, -0.13874043841547595, -0.06342620359255766, 3.2263777107300094e-135, -0.12443628894493663, 0.043542430312710115, -0.009294634746668601, 0.1617968869055456, 0.14989271195598436, 0.0018047164001426816, -0.1948702667582456, 5.541015790634703e-145, 0.09301183939436164, -0.007251932710177687, -0.00989236002061064, 0.03572785705861762, 0.08027282304020733, 0.13281434857591087, -0.09700742680575637, -0.009016196091249472, -0.1857220823121658, -0.08552879569655719, 0.12440169910502429, -0.12398325089269718, -0.03385869432115846, -0.2736472561508944, 0.05852854446652442, 2.467279899042224e-134, 0.05872663090510728, 0.06910564777231293, -0.1691919171689623, -0.007154805180013354, -0.08737236650044594, -0.2541044826792206, -0.010520532589657952, 0.12320497236260068, -1.3041656328649867e-08, 0.03126786740880752, -0.12409000609606198, -0.13326742414357204, 0.2285343628202801, 0.0024456547682069683, -0.03826568903484307, 0.09261161097698765, -0.046927265620455634, 1.1539974776054168e-150, -0.03490952517656869], [0.08873464712455165, 0.255514944239936, 6.83351571145463e-05, -0.0268188773515032, -0.016244067044710174, -0.257072666742049, -0.14463602947615545, -0.3604462383950378, -0.06107511034461505, -0.062122656932599475, 0.010729201244328749, 0.13434810339244166, 0.12600453585476729, -0.06751444417198522, -0.20894009137243433, -0.1981815260504702, -0.04174926803721792, -0.03837144036839855, -0.0778041213563727, -0.2123346209169705, 8.789072173028332e-120, -0.07198241889145185, -0.37454039378204645, -0.20437157729995886, 0.18393711048720582, -0.16994342931890455, 0.10866659831789562, -0.024891047021555913, 8.322657447944562e-131, -0.1717719370833212, 0.18395162480802021, -0.01442989289016654, 0.13147866962702268, -0.17593307294705582, 0.10804114732106007, -0.15199681020900074, 0.11831039312404575, 0.02650456095490777, 0.223050686821242, -0.10191886872115632, -0.17503812073847172, -0.09041566681065694, 0.28931822873399315, -0.0012168215941871332, 1.3422196580020982e-134, -0.11092550120572148, -0.036174744677412225, -0.3402304147254928, 0.12140478129457062, 0.11866397568164128, 0.3274932389005992, -0.03897460228201855, 0.07469528531520372, -0.0027186607796934746, -0.12014888452773136, 0.09454521419777626, 0.16261793392560575, 0.1231366720535007, 0.12095105186175685, -0.06567367970439925, -0.06763481795006866, 0.1789729505837837, -1.1394599391520833e-118, 0.027307759439195063], [0.08076264435026184, -0.028531061967222663, 0.1446505443000652, 0.08747224899604772, -0.08355068934888196, -0.11757545229487644, -0.059718012899081394, -0.07576641180427213, -0.057435734246495326, -0.06976953521547238, 0.1287815914833583, -0.07165626180629574, -0.059613873962566094, 0.19412031221443893, -0.13877825811584682, -0.05041382910904785, -0.09147644961865294, 0.009780369384993668, -0.08654420945972792, 0.17270058776181918, -2.1835331135741022e-148, -0.009372537899242032, -0.1302389263840095, 0.08297011686823516, 0.05365982018919059, 0.04813383449970722, 0.0553335633401775, -0.02327294170039075, -2.2777132370260667e-125, 0.07892952085169745, 0.17016396334332531, -0.15157318694078414, -0.1370230621224315, -0.07666654620317531, 0.010743376188614243, 0.03837693969365013, -0.08949452178390593, 0.1574563807093868, 0.13312615087155244, 0.1260422969490937, -0.10212608424915275, 0.06288694533804443, -0.005596766029628077, -0.034347636587512075, -7.541103650115282e-132, -0.14588479328640644, -0.10930824728920245, 0.13502520085198436, -0.10698959024483089, -0.048365286053455116, 0.03601343306410055, -0.06640531081270347, 0.035356570368341854, -0.0018107156696436134, -0.006088089408234001, -0.050475496107125206, -0.0946758473335319, -0.04885087046655352, -0.01454643976963657, 0.10145735864541215, -0.04379873818071405, 0.1254136945574093, -7.009636365667346e-143, 0.1740408876579651], [0.03503061545372849, -0.03344053076595884, 0.03356246515745854, 0.09120438686271282, -0.021119929034979466, -0.0072344149661164635, -0.19162368660147056, 0.14714706610652073, 0.12228663860684141, -0.15101919306995407, -0.006276782668782884, -0.058196098403091194, -0.2608811139195152, 0.16775761827638042, -0.0805705754795275, -0.2062224323288608, 0.00025237132071630707, 0.0052110678815435576, -0.1926473547558954, 0.059739742807841875, 1.8455050075142306e-149, -0.15370116485300586, -0.1845353672971526, 0.06050516824676981, -0.13353959562895099, 0.05376788945613625, 0.10411917233631532, 0.17505615332929475, -3.111323556443172e-137, 0.12087376413563261, -0.06869285629442075, -0.023629396667628057, -0.24429319542879893, -0.12839993495349805, 0.04297779514316309, -0.013510470872472589, -0.16761229467797045, 0.13132989307630397, -0.16238582334173637, 0.15234569439758266, -0.02851723728820069, 0.14454001909592368, 0.04046998059270224, -0.008985648603994003, -4.0784873503713783e-143, -0.031544892387074974, 0.10260759315630877, -0.045821862003809395, -0.0764209953102827, -0.18334310104333093, -0.10123307640880112, -0.0165539828092514, 0.19724365534285332, -0.0006815475563930076, -0.029037489739820677, 0.06448610132015813, 0.09330122313668424, -0.06622140131073061, 0.021477977503298933, -0.08726643418736678, 0.17508702649133615, -0.21916893519389724, 6.612803838684176e-123, 0.10078804565625366], [0.06235541944635762, -0.08630579768253603, 0.00020329466873301647, -0.022501857664519054, -0.11954304618132837, 0.05138274729969973, 0.11993670513170565, 0.09136001720657949, 0.08211374658956219, -0.1403453843440225, -0.016454053427597613, -0.08934122419624428, 0.035194764093833424, 0.1532327167136805, 0.06546341667860006, -0.1491828919977818, -0.012693123804459772, -0.04750920201518463, 0.0012801783145841687, 0.09951265847439215, 4.5091955514235296e-132, 0.07310622602124564, -0.26576161579047136, -0.05590973475466261, -0.08426927456701273, -0.04762686632960998, -0.05152119641455296, 0.0623088583122765, -9.014536851389253e-143, -0.2112666955366052, 0.03394433293776013, -0.01332595403531347, -0.1133372504899083, 0.07536402711943237, -0.09389685462959545, 0.017025022013944555, -0.1765089416469678, 0.14768367664653592, 0.058398486415512096, -0.039349300197003015, 0.011313468822252088, 0.1711992385717015, 0.17301501632009095, -0.030837376633679588, 2.980224984428869e-126, 0.09786217930737938, 0.09428161054287035, 0.038972243603990125, 0.08353903257935925, -0.1006501592084565, 0.07366956960113168, -0.016873794014915924, 0.09099114435863795, -1.8889922102976645e-05, 0.07115979748468061, 0.07921983524320644, -0.09563607477840143, 0.18116404915834403, 0.0075703981875264404, 0.15310221024147, -0.054658343391124464, -0.02849036745284695, 3.4609598279266497e-124, -0.09703656531136509], [0.1411314784776687, 0.027209151333061392, -0.012399777288651076, -0.2703039201173629, 0.051993440300179765, -0.042974839423157704, -0.14381483166764747, -0.11976484941661875, -0.2321081029246383, 0.14045357175777168, 0.134356340363941, -0.013750725248461668, -0.022251425506951732, -0.0724761207483466, 0.09702643748593946, 0.15059637545802262, 0.1533119845567473, -0.008412392960577837, 0.16966612603832537, 0.004097636344554128, 1.4344889570727578e-118, -0.11373349541303358, 0.06353103371703407, 0.10314274580274914, -0.04941364016770854, -0.13504633175001998, 0.10721880429017029, -0.06935748455781332, -1.1936695770259468e-144, -0.10826226801387075, -0.06633879133585469, 0.004204579748656036, -0.07391932500240601, -0.018420783163389694, -0.17506800257686794, 0.05457565780211876, 0.05349750872975851, 0.15984130093920665, -0.15038899405539005, 0.06854512362467152, -0.23648791377618825, -0.13413495555769694, 0.08140558502834948, 0.014718698193597885, -2.924574595368476e-130, -0.09630417388370582, -0.1974803118686632, 0.11130891004918406, 0.2105494866580934, -0.020634584837102808, -0.12249701846439555, 0.0564617387053055, 0.13345175260428088, -0.020335547164293716, -0.09076508696552174, -0.16974464695048194, 0.11515281318274193, -0.32186936626246193, -0.04088548974354444, 0.10830660293267624, -0.17675654704055394, 0.07700264536949357, 2.281998122915815e-140, -0.16965727903942793], [-0.06554528807563324, -0.2443657571155046, 0.14636991073969022, 0.12259638953596992, -0.05854346536394865, 0.06965958267683343, -0.11688522479794375, 0.1766445379921895, 0.0012393967593393978, 0.15706283308687416, -0.1820246476101599, 0.005586355427274252, -0.11234120739685342, 0.150087198158892, -0.1343651159107598, -0.01852969459060271, 0.08735424660322208, 0.12256864972387795, -0.4638394063638622, 0.010144309815820093, -2.7250124629348546e-142, 0.15958191471235444, -0.1468359521206934, -0.021000067396750012, -0.09869725631541149, -0.1013831580096707, -0.006401745160863766, -0.015235964755000934, -4.661499937687437e-142, -0.08031020024516679, 0.04459164889969878, -0.0781684036446175, 0.05415117775092505, 0.08166539307130181, 0.12225398630674707, -0.08727964332401462, -0.1093395862938165, -0.06480611389828604, -0.06077340233717299, 0.0911465481060739, 0.07183934309007672, -0.217786612407441, -0.4637252346788537, -0.004495002085867365, 2.870031173578635e-140, -0.12302266476808747, 0.007711151774239171, -0.055398851318775914, 0.14842247368593597, 0.1150741092465599, -0.2378665983224614, -0.09391958257355024, -0.009260264770453153, -2.252633492953057e-19, 0.0693974838295464, 0.07692772057679131, -0.09481623595755256, 0.150398070111021, -0.060466463274135136, -0.045408643382671456, 0.10952699999100737, -0.1443004982052478, -9.761372438669304e-142, -0.07580076413422696], [-0.1236069147730484, 0.18857013269752523, -0.11834821275078772, 0.0023042096290847172, 0.14718016479981436, 0.08352159849690333, 0.08433528444991148, -0.1250454377936346, 0.16673545430477366, -0.20696320612634847, -0.030782032708519605, 0.03623636242578421, 0.05967630772810212, -0.004466557453285541, -0.039787286934909634, -0.020618038381591482, 0.1581843144850515, -0.07943623728006743, 0.11060123485697662, 0.025043437320820844, 4.1316737376410764e-133, 0.03274902616968668, 0.03383751699538741, -0.24263897065031323, 0.1170433528429887, -0.21425438645321288, 0.1611685966078599, 0.15652989883666477, 1.0094659372916894e-139, -0.1761008873800759, 0.13786849871134912, -0.02117073960589005, 0.1839978441685718, -0.16498501410488825, -0.08355262138734618, 0.1605256951684383, 0.06912199960398842, 0.12958718221583698, -0.019043167210674963, 0.008191242952543632, -0.03141852279074994, 0.15720937397587076, 0.12248290983986679, -0.002643095185022726, -4.799093704889512e-148, -0.1045648181637489, 0.08091595953463077, 0.012284458372329063, 0.10391032318634137, -0.04043721060695324, 0.12590664233445398, 0.0439669528214112, -0.1209331590008953, -0.0015970337292145612, -0.18868216228804577, -0.016344008070683053, 0.14457937860043518, -0.16567720775831207, 0.10419418135922043, -0.0281405383939224, 0.0012603506926796744, 0.15404150634925337, -1.747157013640354e-142, 0.009298867311865848], [-0.073477002363571, -0.21157715800460875, -0.06511613572646044, -0.37941575000466404, 0.04994621965565663, -0.0804840452708151, 0.07060288158735026, 0.03687119164116622, -0.040192012626852805, 0.2857010401397551, 0.13808722264467904, -0.16753717076496144, 0.10383829121087103, -0.20465754877749975, 0.012474785898116356, -0.21710128259231548, -0.08886767098099994, -0.023396548969200674, 0.04205931437178314, -0.04926342906639859, 1.9678313631013238e-124, -0.00893092745427637, -0.16047672791636688, 0.05352343704696712, 0.18972362994411512, -0.018749088633105936, -0.016003012676479925, 0.14048188769165085, -1.0862368275334117e-134, 0.004089650349452325, -0.044648874154862545, 0.0753320182301687, -0.0930794104128813, 0.02371215968496673, 0.007346956565743119, -0.32723126498782984, 0.15007365577839063, 0.038844810187996924, 0.04057274330488776, -0.2570131006095598, -0.20969491021303618, -0.06143655592536674, 0.061481224668864354, 0.007515153320329608, 1.1015331608968053e-142, -0.16238323576193042, -0.13694878360066587, 0.10753179182586749, 0.157302292949422, 0.003940168451701671, -0.06666787357276088, -0.0262728654664978, -0.08726617698474562, 0.008431796562477032, -0.11231542312581919, -0.1947818979784975, -0.027316910580847325, 0.08113736519710835, 0.0700687486563248, -0.297842505562496, 0.023025023866539162, 0.27814359325599675, -7.784211087005345e-122, 0.021450943311709395], [-0.013614961148172825, -0.9480578051400073, -0.00043328468237704775, 0.24750600502465572, 0.02648269915962108, -0.03882419831814621, -0.19641399018310024, -0.10997026889831024, 0.015245575938630953, 0.0036595457670423274, -0.10164852261564698, 0.1082849734454677, -0.31113936298808154, 0.02794545307587986, 0.16441953552494523, 0.22980615397734008, 0.07055867684269743, 0.03469825267325074, -0.23103029524574056, 0.04152728777600598, -3.1517848435757673e-146, 0.008692283814833205, 0.052440967703269274, 0.0724803455160421, -0.180731326685169, 0.2048249491364192, -0.28114222509699976, -0.03873215332492079, -2.36363755620308e-140, 0.09900874202299571, 0.023205527646237168, 0.025308116193757866, -0.0919222151293036, 0.07746638548436312, -0.05350533797280718, -0.06290258953658773, -0.296292856756014, 0.007322396196713658, -0.05916968073206698, 0.23640364218715276, 0.19636152502236429, 0.010268535603066904, -0.35904858356157104, 0.02946900304497504, -2.814898297427682e-126, -0.014870902857147655, -0.04671167598002831, 0.03909969299877698, -0.07499905162363137, -0.4190794780875444, -0.43954596133492013, 0.009219538683560347, -0.18290219346287773, -0.00015124954702430143, 0.19285858105816422, 0.08566971547054925, -0.24332240425452864, 0.009270432939855864, 0.11909197274704925, 0.045084601057644905, -0.02253563782619564, -0.02587875423321991, -2.1802829417109108e-125, 0.14710230259532286], [0.11284263582785696, -0.0015009418286845897, -0.0482598730364783, 0.09646964279129909, 0.007005838079588065, -0.15883694207501306, -0.04778230780292902, -0.10664594790527014, -0.04595632408012034, 0.11430202946322672, -0.11132750224915625, -0.018399256024694964, -0.1544202106118255, 0.0627574011224744, 0.005397386439354448, -0.293003551561199, 0.08912946328808187, -0.03418717333462346, 0.041113745302331625, 0.02867799753499317, 5.622542242203034e-147, 0.1394082541530355, -0.08005100345936873, -0.10870782378808777, 0.1189339031394838, 0.19276305511020034, -0.11014817828917059, -0.11660907849491675, -7.694459495337083e-143, -0.0754541866056611, -0.2735487741005344, 0.002595643318525905, 0.13263374870876765, -0.0009455555568874676, -0.04858154678041081, 0.0037000575529010944, -0.002991147053748974, 0.14372966091888978, -0.013431062114884904, -0.0754164913037384, 0.0592621869707371, 0.09916255038409956, 5.460816723886214e-05, -0.0061142174383989846, 9.604871719641024e-133, 0.23393232054178534, 0.03538269074179818, 0.11152735646085721, -0.10468040426816007, 0.07306827898481191, -0.01141511275954169, 0.01010374468171833, 0.010037074321920652, -4.58549299937959e-06, -0.022901940594779006, -0.07022760437582086, 0.009416516532735463, 0.08414671935992664, 0.01701983204448676, -0.22629904662615244, 0.038422447782885144, -0.0008745079365213875, -1.777664104493799e-127, 0.06764154734322489], [-0.16312987744217605, 0.13098093937992447, 0.009895093624638918, 1.89036813555601e-05, -0.00937256148942769, 0.169409210611643, 0.009523712520649416, -0.17788135462274932, -0.1599938038330319, -0.1361678519456229, -0.05231718971884548, 0.012798768681285882, -0.0769650041051914, 0.12749076181637833, 0.12010393049604595, 0.16718768623657584, 0.11237086994056715, -0.15598009993816642, -0.05498172679472757, 0.04732762562432237, -1.5982385179271993e-130, 0.10765026936043662, -0.19960578817872426, 0.19523616034852628, -0.14889074082079967, 0.09203494100104379, 0.1890188717368512, -0.10377038732662576, 1.190387933220066e-138, -0.17624528575091084, 0.0017940457059653693, -0.005476634512467378, 0.008517416453008969, 0.17184654285861506, 0.053149077531392766, 0.11710634482738014, 0.04485058303061975, 0.17795185602081717, -0.21462458912831778, 0.22819102210750122, -0.04404970181545143, 0.038854041782392705, 0.09481896035083398, -8.05832761377961e-09, 5.9065798941864915e-148, 0.007285911134444857, -0.09616643913234751, -0.1261968420370626, 0.05905012698918516, 0.12012088279341106, -0.0002740977027410049, -0.021370550513369703, 0.0012306845376984436, -0.06303896474495212, 0.12329660210851526, 0.09459121155911346, -0.03809038838863356, -0.1517730457223634, 0.044710707590680174, -0.03456596307154413, 0.09130066643409386, 0.0724828685173934, -7.022564494123254e-134, 0.021637626306045238], [-0.039686608887986564, 0.03847442421112679, -0.004236203939379003, -0.3525849201871023, -0.06418453532723509, -0.006607278450957759, 0.0721433260086971, -0.020248452802935343, -0.1275329565325479, 0.10421527764879711, 0.06299751560283358, 0.028225803629305025, -0.1176865347245697, -0.030277623902797073, -0.1104281537302919, 0.0695684307365866, -0.01273143307352594, -0.09689056649954277, -0.19943603076756236, -0.029147526619146647, 1.297840987881915e-121, -0.012382618533321801, -0.061129996699354434, 0.0034363301207177505, 0.01100512487414455, 0.19400318233656025, -0.10309950536629839, -0.03522543527031104, -2.471067929206478e-122, -0.2712451964893927, 0.018409371710849935, 7.518206822611358e-148, 0.197482099293482, -0.1333379760614177, 0.21682441205346537, -0.10395250690523711, -0.0954453260307844, -0.16915380803141353, -0.0787933747098164, 0.14337944674795083, 0.03700730710373455, -0.0867596791143579, 0.17649726743201313, 0.09358423748474376, -5.270866217903051e-140, -0.16099787652333328, -0.13876620863284958, -0.09853776614168405, -0.09667313075010563, -0.03651741052019814, -0.16525968048731046, -0.05348843363040411, 0.1562217831385728, 0.0017026754394300514, 0.10264868650293209, -0.16398006108842755, -0.07632364987453738, -0.2988433379480534, -0.08000879907040429, -0.06970307381159876, 0.058222775016382726, 0.059363279919088255, 1.0043873392163123e-146, -0.03150044810849882], [-0.047912257968636233, -0.2700469677447524, -0.002680853352705891, 0.0031201389672910478, -0.1405424053832558, 0.15417359409751694, -0.04771182788270369, -0.045320335153638876, -0.04298493924307695, -0.04700321651695068, -0.1271718036504205, -0.12435169713756872, -0.27210669149140915, 0.10365121374340225, 0.1260917186218001, 0.057469675497127955, 0.03341390462653323, 0.037354035090452736, -0.01595902595461855, 0.04089172386679387, -3.286912756980397e-143, 0.0726049410767509, 0.22682457550317472, 0.004134975599266352, 0.0682586029843927, 0.2305109855261877, -0.14937062883791072, -0.011027952914394595, 1.1758593862366382e-146, 0.19009365990310073, -0.16199718589960613, 0.08912561822322776, -0.09855758096339551, 0.13757174938823777, -0.2018646030969633, 0.10153117998578085, 0.032095834917455976, 0.15119771912067342, 0.11536827985229182, -0.00476520770843813, 0.11149656204735665, -0.00673503565019076, -0.17933192293301062, -0.010944354543506122, -3.129480608514307e-146, 0.08787106206589283, 0.13667872409327742, -0.07556003121606744, 0.11378954929664187, -0.19592692935862616, -0.2757338171525126, -0.04331692464880359, 0.04316113970741858, 0.055350647699403024, 0.24193300748747645, 0.14474453560462414, -0.09736763651165563, -0.07689406939151097, 0.10305905205711412, 0.03649229961821383, -0.10407595452016813, -0.08016159798570306, 7.189158493307996e-148, 0.026659413830062505], [0.0009068332723140188, 0.04342836914233383, -0.00011793639167750914, 0.030357070636727986, -0.11601918678933754, -0.00291206409055315, -0.144240120439625, -0.059624655999540005, 0.06234658838621208, 0.020193158078075542, -0.11119002588972941, 0.047261839374400975, 0.12932046996240315, 0.049959424095341896, 0.11460817674790824, -0.08329934601252818, -0.017217294637330644, -0.03453797357695524, -0.16572375545827284, -0.046304561168783134, 3.3831077137235273e-146, -0.011843765493731045, -0.15907702087360162, -0.18173286718579212, 0.08395069959237639, -0.03719997627948759, 0.11752109370331297, -0.12956535801172883, 2.3416367596765917e-147, 0.08617278334994222, -0.15198464703182485, -0.02093389421980431, -0.09828628580776633, 0.024150197716785768, 0.07808263409744404, -0.0700174800777457, 0.05821426701397195, 0.12368225038129063, -0.009415853676920004, -0.25675869878285773, 0.2020429324613955, 0.04987072381681904, 0.22915530604258041, 2.9135434554271674e-146, -5.297032602298395e-132, -0.010721264999027001, 0.09649719163436486, 0.1450782628008014, 0.03165467728791385, 0.016672678797411647, 0.0017860243100113703, -0.01655459301923705, -0.06413233558587701, -0.03815977997526052, 0.05890933528555404, 0.007752335133315788, -0.056221587351180796, 0.020499392989963266, -0.11604348854722654, -0.16184212767777229, 0.062412699353594926, 0.025475339092632714, 1.1264416837287828e-133, -0.09996344463981963], [0.01896212918743483, 0.1839744900298649, -1.7929934261843356e-10, 0.11712796473200134, -0.020330788557323825, 0.12243121750210813, 0.1173043762290816, -0.3440258270244558, -0.13767456070315914, 0.05889425478533857, 0.0034466723650467992, 0.034061313722093964, 0.07194081113631522, 0.0781735431360064, 0.11498097600267687, 0.10503574807020953, 0.16135072307502712, 0.019479457946127175, -0.0699434348533834, -0.15243339466755773, 4.3897767475389384e-135, 0.08771097914639975, -0.3060087794800704, -0.06055827327691165, -0.0914369446464047, 0.1377855809731178, 0.027110432394852793, 0.03589846575685182, -1.7630126567003024e-136, 0.05883350407350428, 0.12909186715573207, -0.0583633038136463, -0.019618443957872784, -0.10144050451900179, 0.22199094995294885, 0.08818492455074584, 